tree
version=v4
num_class=1
num_tree_per_iteration=1
label_index=0
max_feature_idx=40
objective=regression
feature_names=week tempe_min humidity_max humidity_avg humidity_min temp_avg temp_max vim vim_monthly precipitation_avg_ordinary_kriging precipitation_max_ordinary_kriging precipitation_avg_regression_kriging precipitation_max_regression_kriging nearby_cases_weighted date_ordinal month_sin month_cos week_sin week_cos cases_lag1 cases_lag2 tempe_min_lag5 tempe_min_lag6 temp_avg_lag5 temp_avg_lag6 temp_max_lag5 temp_max_lag6 humidity_max_lag5 humidity_max_lag6 humidity_avg_lag5 humidity_avg_lag6 humidity_min_lag5 humidity_min_lag6 precipitation_avg_ordinary_kriging_lag5 precipitation_avg_ordinary_kriging_lag6 precipitation_max_ordinary_kriging_lag5 precipitation_max_ordinary_kriging_lag6 precipitation_avg_regression_kriging_lag5 precipitation_avg_regression_kriging_lag6 precipitation_max_regression_kriging_lag5 precipitation_max_regression_kriging_lag6
feature_infos=[201401:202052] [-3.4007973405799885:1.4829808477113271] [-3.1027941622618878:1.7069740633519621] [-2.3743903530694559:1.9055891350325478] [-1.9745157884004696:1.9116952359799018] [-3.3408120345883008:2.1040343723507955] [-2.7905345740384671:1.9710265141119028] [0.83355771089646935:0.87853177083726552] [0.83396666666666663:0.87836666666666663] [-0.98017987657944317:4.5830626348264829] [-1.0472508995061984:7.1021653078855156] [-0.92186804765882757:4.7570065587648251] [-0.98279437213000265:7.0662724174339724] [-0.63470237959967934:5.8972537225786352] [735231:737779] [-1:1] [-1:1] [-1:1] [-1:1] [-0.47162390865634823:7.0279613013117883] [-0.4708414143776728:7.0280731034990156] [-3.4013799075021223:1.4835163781929424] [-3.4012760957038859:1.4830488885589785] [-3.3327272307403075:2.0917973979552014] [-3.3321672487387444:2.0908088433158096] [-2.7867939187017297:1.9600874237480825] [-2.786524042840901:1.9594969138411185] [-3.0975287916605896:1.7433706283594961] [-3.0915883179062935:1.7489875621592359] [-2.3441106522267217:1.9134632284331414] [-2.3381966616776313:1.9129822636213487] [-1.9541142061275645:1.9184817864566135] [-1.9507949540712368:1.9177243129104256] [-0.97737282821568161:4.5702171625903203] [-0.97715823332076979:4.5554789627599392] [-1.0308823154399924:6.9543897228312224] [-1.0307749828804726:6.9477371053450394] [-0.91959692918924962:4.7407318848074764] [-0.91962146739074069:4.7278385736452826] [-0.96741288290395089:6.9183613230826779] [-0.96730794557952526:6.9099384786124265]
tree_sizes=1175 1262 1085 1171 1172 1168 1091 1171 1173 1183 1265 1174 1182 1095 1091 1099 1094 1014 1096 1103 1103 1102 1191 1196 1106 1273 1186

Tree=0
num_leaves=12
num_cat=0
split_feature=19 19 19 21 0 12 13 19 22 33 30
split_gain=214.051 34.3763 3.04427 1.93015 0.444344 0.25728 0.10639 0.0954519 0.0223817 0.00655355 0.00126973
threshold=1.8062874868947214 0.12413753325700845 -0.29639995515241974 0.75286949785395096 201851.50000000003 1.1790629959057743 -0.53931837470851007 -0.43657911795556248 0.62724835712831317 -0.73558746563838207 0.1944084833351401
decision_type=2 2 2 2 2 2 2 2 2 2 2
left_child=1 2 5 -3 -4 6 7 -1 9 -8 -11
right_child=-2 3 4 -5 -6 -7 8 -9 -10 10 -12
leaf_value=-0.0015824019937868798 0.17554779978589302 0.040974235790046713 0.0086635533844880118 0.062212612656748871 0.01812088905415981 0.0043936451243823497 -0.0024529830618389564 0.0024663461712465425 -0.0013298484777444844 -0.0036659682450229172 -0.0031403413323098685
leaf_weight=37 21 23 27 20 23 20 26 24 24 27 20
leaf_count=37 21 23 27 20 23 20 26 24 24 27 20
internal_value=0.0210457 0.00984646 0.00211285 0.0508526 0.0130139 -0.000949245 -0.00162556 1.05481e-05 -0.00265445 -0.00308994 -0.0034423
internal_weight=0 271 228 43 50 178 158 61 97 73 47
internal_count=292 271 228 43 50 178 158 61 97 73 47
is_linear=0
shrinkage=1


Tree=1
num_leaves=13
num_cat=0
split_feature=19 19 19 20 19 12 19 38 31 10 35 12
split_gain=193.181 31.0246 2.74745 2.01961 0.408715 0.232195 0.0961145 0.0511233 0.0326834 0.0288223 0.0198869 0.000650626
threshold=1.8062874868947214 0.12413753325700845 -0.29639995515241974 0.40520000126212724 -0.15622079234927702 1.1790629959057743 -0.43657911795556248 -0.27131177741654144 -0.26118166005438775 -0.60068258559759224 -0.29161064733843844 -0.43140410514817135
decision_type=2 2 2 2 2 2 2 2 2 2 2 2
left_child=1 2 5 -3 -4 6 8 -8 11 -10 -11 -1
right_child=-2 3 4 -5 -6 -7 7 -9 9 10 -12 -13
leaf_value=-0.023166649043560028 0.14677699563049137 0.018211864032175229 -0.011973428969772963 0.03993684817105532 -0.0029250010382384064 -0.015819451287388802 -0.018223259515232512 -0.021558534801006321 -0.022969797968864444 -0.019687420502305032 -0.021890454384542648 -0.023549259483814242
leaf_weight=20 21 23 26 20 24 20 27 20 25 20 21 25
leaf_count=20 21 23 26 20 24 20 27 20 25 20 21 25
internal_value=0 -0.0106393 -0.0179862 0.0283165 -0.00763018 -0.0208952 -0.0215377 -0.0196425 -0.0223402 -0.0216317 -0.0208158 -0.0233792
internal_weight=0 271 228 43 50 178 158 47 111 66 41 45
internal_count=292 271 228 43 50 178 158 47 111 66 41 45
is_linear=0
shrinkage=0.05


Tree=2
num_leaves=11
num_cat=0
split_feature=19 19 19 0 12 13 19 22 33 32
split_gain=174.346 28.1123 3.31794 0.612432 0.209556 0.0940322 0.0803322 0.0191986 0.00553184 0.000991596
threshold=1.8062874868947214 0.19422711465857984 -0.29639995515241974 201851.50000000003 1.1790629959057743 -0.53931837470851007 -0.43657911795556248 0.62724835712831317 -0.73558746563838207 0.54775857188826871
decision_type=2 2 2 2 2 2 2 2 2 2
left_child=1 2 4 -4 5 6 -1 8 -7 -10
right_child=-2 -3 3 -5 -6 7 -8 -9 9 -11
leaf_value=-0.020384005668598253 0.1394381459270205 0.030391335170212631 -0.011315174752639399 -0.00085082982570446769 -0.01502847971394658 -0.021246237479723418 -0.016669737671812377 -0.020201302474985521 -0.022352828858075321 -0.021888324916362764
leaf_weight=37 21 37 27 29 20 26 24 24 27 20
leaf_count=37 21 37 27 29 20 26 24 24 27 20
internal_value=0 -0.0101073 -0.0165109 -0.00589614 -0.0198504 -0.0204608 -0.0189227 -0.0214281 -0.0218314 -0.0221552
internal_weight=0 271 234 56 178 158 61 97 73 47
internal_count=292 271 234 56 178 158 61 97 73 47
is_linear=0
shrinkage=0.05


Tree=3
num_leaves=12
num_cat=0
split_feature=19 19 19 19 1 40 19 13 9 32 13
split_gain=157.347 25.3794 2.62992 1.4316 0.202032 0.178673 0.0647116 0.06629 0.0176127 0.00971763 0.000322291
threshold=1.8062874868947214 1.0000000180025095e-35 0.33440627746172263 -0.29639995515241974 0.99460302888220187 -0.55477775263914797 -0.43657911795556248 -0.58993249720563401 -0.15225265270148447 0.17410492042194406 -0.3026348014880304
decision_type=2 2 2 2 2 2 2 2 2 2 2
left_child=1 3 -3 4 6 -5 8 -8 9 10 -1
right_child=-2 2 -4 5 -6 -7 7 -9 -10 -11 -12
leaf_value=-0.021344934336163784 0.13246623838231678 0.011549710291616905 0.034502414120167184 -0.011697812669950984 -0.014874304215320284 -0.0052359934058040384 -0.015862299352884295 -0.019604078089368756 -0.019315877743065358 -0.020010344950216159 -0.021067607179284097
leaf_weight=22 21 26 24 23 27 20 20 29 32 28 20
leaf_count=22 21 26 24 23 27 20 20 29 32 28 20
internal_value=0 -0.00960195 0.022567 -0.01688 -0.0188579 -0.00869232 -0.0195702 -0.0180768 -0.0202876 -0.0207319 -0.0212129
internal_weight=0 271 50 221 178 43 151 49 102 70 42
internal_count=292 271 50 221 178 43 151 49 102 70 42
is_linear=0
shrinkage=0.05


Tree=4
num_leaves=12
num_cat=0
split_feature=19 19 19 17 19 1 36 9 17 0 9
split_gain=142.006 23.0504 2.70954 0.300675 0.244421 0.203004 0.031228 0.0175892 0.0165907 0.00603664 0.00182661
threshold=1.8062874868947214 0.19422711465857984 -0.22631037375084839 0.35460488704295184 -0.36648953655399114 0.99460302888220187 -1.0017068170483656 -0.15225265270148447 -0.12053668025742161 201737.50000000003 -0.52202182289349175
decision_type=2 2 2 2 2 2 2 2 2 2 2
left_child=1 2 4 -4 5 6 -1 9 -9 10 -8
right_child=-2 -3 3 -5 -6 -7 7 8 -10 -11 -12
leaf_value=-0.01710643216967583 0.125842922996907 0.027549870985534949 0.00093162052244657567 -0.0076345391012728227 -0.013252636517087619 -0.014113127425886119 -0.019757564750409896 -0.019372642853043298 -0.017382880784571172 -0.019028648734092712 -0.020361518859863283
leaf_weight=20 21 37 21 20 30 26 31 22 20 23 21
leaf_count=20 21 37 21 20 30 26 31 22 20 23 21
internal_value=0 -0.00912185 -0.0149204 -0.00324699 -0.0174002 -0.0181636 -0.0189323 -0.0192444 -0.0184251 -0.0197031 -0.0200015
internal_weight=0 271 234 41 193 163 137 117 42 75 52
internal_count=292 271 234 41 193 163 137 117 42 75 52
is_linear=0
shrinkage=0.05


Tree=5
num_leaves=12
num_cat=0
split_feature=20 20 22 20 13 23 31 28 0 27 9
split_gain=125.482 18.4669 3.47244 0.719166 0.308143 0.28578 0.0640171 0.0353825 0.0335149 0.018156 0.00882597
threshold=1.5966163265322555 1.0000000180025095e-35 0.75248745928890604 -0.36571644450089674 -0.39143771260569044 0.82900106545062957 1.1820548906147412 0.24639555274479266 201707.50000000003 0.11061336771154609 -0.090960194581031467
decision_type=2 2 2 2 2 2 2 2 2 2 2
left_child=1 3 -3 5 -5 6 8 -8 10 -10 -1
right_child=-2 2 -4 4 -6 -7 7 -9 9 -11 -12
leaf_value=-0.018828599575238351 0.11475800712677567 0.006867446002434008 0.03303364584488528 -0.0065838062168600475 -0.014281742045512566 -0.011524486308917404 -0.014811701238864945 -0.017595664799213411 -0.016524120323036028 -0.018583970963954928 -0.020047262559334436
leaf_weight=39 22 32 21 26 26 20 21 25 23 20 24
leaf_count=39 22 32 21 26 26 20 21 25 23 20 24
internal_value=0 -0.0093056 0.0172352 -0.0155853 -0.0104328 -0.0171431 -0.0178824 -0.0163247 -0.0185583 -0.0174822 -0.0192929
internal_weight=0 277 53 224 52 172 152 46 106 43 63
internal_count=299 277 53 224 52 172 152 46 106 43 63
is_linear=0
shrinkage=0.05


Tree=6
num_leaves=11
num_cat=0
split_feature=20 20 36 20 13 17 10 13 25 10
split_gain=113.247 16.6664 3.19335 0.649048 0.278099 0.188784 0.0441395 0.0202113 0.00661781 0.00228668
threshold=1.5966163265322555 1.0000000180025095e-35 -0.13499421422787419 -0.36571644450089674 -0.39143771260569044 0.56806474673050678 0.62999870664990765 -0.49260494917247427 -0.3398514248882149 -0.47704947870150466
decision_type=2 2 2 2 2 2 2 2 2 2
left_child=1 3 -3 5 -5 6 7 -1 -9 -10
right_child=-2 2 -4 4 -6 -7 -8 8 9 -11
leaf_value=-0.016783284835326366 0.10902010654522615 0.0033847686462104322 0.027970442004568344 -0.0062546158675104383 -0.013567654895954406 -0.012948688203879797 -0.015683431803989106 -0.017502764612436297 -0.018238650038838386 -0.018994738161563874
leaf_weight=39 22 25 28 26 26 34 39 20 20 20
leaf_count=39 22 25 28 26 26 34 39 20 20 20
internal_value=0 -0.00884032 0.0163734 -0.0148061 -0.00991114 -0.0162859 -0.0171082 -0.0176694 -0.0182454 -0.0186167
internal_weight=0 277 53 224 52 172 138 99 60 40
internal_count=299 277 53 224 52 172 138 99 60 40
is_linear=0
shrinkage=0.05


Tree=7
num_leaves=12
num_cat=0
split_feature=19 19 27 19 1 36 19 23 28 33 28
split_gain=122.747 10.175 1.21269 0.829293 0.15503 0.144935 0.0384109 0.0153245 0.00518026 0.00520335 0.00563902
threshold=1.2105260449813648 1.0000000180025095e-35 -0.3106740003537542 -0.36648953655399114 0.41508917833423781 0.7280543879987692 -0.43657911795556248 -0.95289955514002356 -0.5266890331205174 -0.090655019785032223 0.28467809486866485
decision_type=2 2 2 2 2 2 2 2 2 2 2
left_child=1 3 -3 5 -5 6 7 -1 -9 10 -10
right_child=-2 2 -4 4 -6 -7 -8 8 9 -11 -12
leaf_value=-0.015745771534386135 0.10828293624605674 0.019059159800720715 0.0033241637684404851 -0.0064260378870512214 -0.011778733124568438 -0.01266425161312024 -0.015027486105613851 -0.017957307994365693 -0.016150751845403152 -0.017626045271754265 -0.01731078378856182
leaf_weight=21 24 24 25 31 24 30 34 20 22 24 20
leaf_count=21 24 24 25 31 24 30 34 20 22 24 20
internal_value=0 -0.009624 0.0110311 -0.0141023 -0.00876176 -0.01582 -0.0164915 -0.0169567 -0.0172524 -0.0170387 -0.0167031
internal_weight=0 275 49 226 55 171 141 107 86 66 42
internal_count=299 275 49 226 55 171 141 107 86 66 42
is_linear=0
shrinkage=0.05


Tree=8
num_leaves=12
num_cat=0
split_feature=19 19 20 19 23 0 30 4 2 9 24
split_gain=110.779 9.18295 0.864291 0.752281 0.258643 0.080582 0.0231981 0.0112376 0.00877876 0.0129676 0.00579363
threshold=1.2105260449813648 1.0000000180025095e-35 0.26503337475975924 -0.29639995515241974 0.95798456801658449 201836.50000000003 1.2978178773652107 -0.9614843898909774 0.42146994326693477 -0.090960194581031467 -0.16980576761588212
decision_type=2 2 2 2 2 2 2 2 2 2 2
left_child=1 3 -3 4 5 6 7 -1 9 10 -9
right_child=-2 2 -4 -5 -6 -7 -8 8 -10 -11 -12
leaf_value=-0.01504331949632615 0.10286878802192707 0.0039731937283650045 0.017256994937391332 -0.0070804408706653006 -0.0093412782251834879 -0.012740501668304205 -0.014469079444041619 -0.016031391657888888 -0.017151909708976745 -0.015272466763854027 -0.017220475985890344
leaf_weight=20 24 25 24 39 20 25 26 20 25 30 21
leaf_count=20 24 25 24 39 20 25 26 20 25 30 21
internal_value=0 -0.0091428 0.0104795 -0.0133972 -0.0147146 -0.0153581 -0.015819 -0.0161215 -0.0163461 -0.0160624 -0.0166404
internal_weight=0 275 49 226 187 167 142 116 96 71 41
internal_count=299 275 49 226 187 167 142 116 96 71 41
is_linear=0
shrinkage=0.05


Tree=9
num_leaves=12
num_cat=0
split_feature=19 19 35 19 22 3 34 25 17 16 11
split_gain=99.9783 8.28761 0.807682 0.679809 0.170199 0.151302 0.0220094 0.0198287 0.00762846 0.0055063 0.00463464
threshold=1.2105260449813648 1.0000000180025095e-35 -0.13434257905242883 -0.36648953655399114 1.0447120309969413 -0.47612533553968789 0.90109464857751209 -1.2272188830488762 -0.35460488704403487 -0.68301270189221952 0.035156851443573292
decision_type=2 2 2 2 2 2 2 2 2 2 2
left_child=1 3 -3 4 6 -5 7 -1 10 -10 -9
right_child=-2 2 -4 5 -6 -7 -8 8 9 -11 -12
leaf_value=-0.013939805781202658 0.09772534579581893 0.0036658984054811303 0.016507307502130666 -0.0049115370192642643 -0.010066704357242478 -0.010199476782825866 -0.013371669405716517 -0.015493982349123274 -0.015592118427157403 -0.014488606126262592 -0.016448118612170222
leaf_weight=28 24 25 24 24 21 31 21 35 20 26 20
leaf_count=28 24 25 24 24 21 31 21 35 20 26 20
internal_value=0 -0.00868566 0.00995557 -0.0127273 -0.0142826 -0.00789201 -0.0148728 -0.0151172 -0.0154435 -0.0149684 -0.0158409
internal_weight=0 275 49 226 171 55 150 129 101 46 55
internal_count=299 275 49 226 171 55 150 129 101 46 55
is_linear=0
shrinkage=0.05


Tree=10
num_leaves=13
num_cat=0
split_feature=19 19 21 39 19 16 27 17 34 9 28 9
split_gain=54.6841 7.68014 2.23045 0.433884 0.250018 0.112601 0.0343193 0.0505558 0.00943741 0.0110255 0.00284592 0.00178524
threshold=0.96521251007586506 -0.15622079234927702 0.75286949785395096 -0.5313851325867639 -0.36648953655399114 0.93301270189221952 -0.28284545217270979 -0.56806474673322871 0.4765332726458219 -0.24668480060329659 0.13162173599674265 -0.73771231680033644
decision_type=2 2 2 2 2 2 2 2 2 2 2 2
left_child=1 4 3 -3 5 6 7 -1 9 10 -8 -12
right_child=-2 2 -4 -5 -6 -7 8 -9 -10 -11 11 -13
leaf_value=-0.015003026574850082 0.069041053146123896 -0.004589514461778371 0.020762205473147333 0.0054582651746882642 -0.0091583951436249277 -0.010549644640464661 -0.015382188061873118 -0.011599248104418319 -0.015790925249457362 -0.013558755032718181 -0.014328333139419556 -0.014988397132782711
leaf_weight=20 25 21 20 22 35 23 21 24 20 20 20 21
leaf_count=20 25 21 20 22 35 23 21 24 20 20 20 21
internal_value=0 -0.00829223 0.0069674 0.00055121 -0.0130048 -0.0138013 -0.0143136 -0.0131464 -0.0148171 -0.0145796 -0.0149089 -0.0146664
internal_weight=0 267 63 43 204 169 146 44 102 82 62 41
internal_count=292 267 63 43 204 169 146 44 102 82 62 41
is_linear=0
shrinkage=0.05


Tree=11
num_leaves=12
num_cat=0
split_feature=19 19 21 39 19 16 34 5 33 17 1
split_gain=49.3524 6.93133 2.01298 0.39158 0.225642 0.101622 0.0321554 0.0144709 0.00732859 0.00602278 0.00848843
threshold=0.96521251007586506 -0.15622079234927702 0.75286949785395096 -0.5313851325867639 -0.36648953655399114 0.93301270189221952 -0.91495698673761383 0.37810839193049767 0.34198644814583773 -0.74851074816912722 -1.1258750221024048
decision_type=2 2 2 2 2 2 2 2 2 2 2
left_child=1 4 3 -3 5 6 -1 8 9 -8 -11
right_child=-2 2 -4 -5 -6 -7 7 -9 -10 10 -12
leaf_value=-0.011735439328476788 0.065589002605527635 -0.0043600386197102216 0.01972409521229565 0.0051853519673882567 -0.0087004753814211907 -0.010022162362609222 -0.014659189906987278 -0.0129555233543919 -0.01502401459784735 -0.014480351097881795 -0.013167258840985597
leaf_weight=20 25 21 20 22 35 23 22 31 21 20 32
leaf_count=20 25 21 20 22 35 23 22 31 21 20 32
internal_value=0 -0.00787762 0.00661903 0.00052365 -0.0123545 -0.0131113 -0.0135979 -0.0138935 -0.0141996 -0.0139657 -0.0136723
internal_weight=0 267 63 43 204 169 146 126 95 74 52
internal_count=292 267 63 43 204 169 146 126 95 74 52
is_linear=0
shrinkage=0.05


Tree=12
num_leaves=12
num_cat=0
split_feature=19 19 21 39 19 16 27 17 34 13 25
split_gain=44.5406 6.25553 1.81672 0.353401 0.203642 0.0917142 0.0301287 0.0433507 0.00791996 0.00865677 0.00191736
threshold=0.96521251007586506 -0.15622079234927702 0.75286949785395096 -0.5313851325867639 -0.36648953655399114 0.93301270189221952 -0.28284545217270979 -0.56806474673322871 0.4765332726458219 -0.49260494917247427 -0.43206280231756006
decision_type=2 2 2 2 2 2 2 2 2 2 2
left_child=1 4 3 -3 5 6 7 -1 9 -8 -11
right_child=-2 2 -4 -5 -6 -7 8 -9 -10 10 -12
leaf_value=-0.01354364685714245 0.062309552572667605 -0.0041420366903323503 0.018737890440970659 0.004926084352403202 -0.0082654516372297499 -0.0095210543064319572 -0.012418218214924519 -0.010391736333258451 -0.014281888753175737 -0.013872677087783815 -0.013277981339982063
leaf_weight=20 25 21 20 22 35 23 26 24 20 23 33
leaf_count=20 25 21 20 22 35 23 26 24 20 23 33
internal_value=0 -0.00748373 0.00628808 0.000497467 -0.0117368 -0.0124557 -0.012918 -0.0118244 -0.0133898 -0.0131722 -0.0135222
internal_weight=0 267 63 43 204 169 146 44 102 82 56
internal_count=292 267 63 43 204 169 146 44 102 82 56
is_linear=0
shrinkage=0.05


Tree=13
num_leaves=11
num_cat=0
split_feature=19 19 35 19 16 27 17 33 9 28
split_gain=40.1979 5.64561 1.06152 0.183787 0.0827721 0.0271912 0.039124 0.00760652 0.00772624 0.00307078
threshold=0.96521251007586506 -0.15622079234927702 -0.13434257905242883 -0.36648953655399114 0.93301270189221952 -0.28284545217270979 -0.56806474673322871 0.34198644814583773 -0.24668480060329659 0.13162173599674265
decision_type=2 2 2 2 2 2 2 2 2 2
left_child=1 3 -3 4 5 6 -1 8 9 -7
right_child=-2 2 -4 -5 -6 7 -8 -9 -10 -11
leaf_value=-0.012866464499384165 0.059194073215126999 -2.0429787828641778e-05 0.013001243564589272 -0.0078521791030652828 -0.0090450014392642868 -0.013252379406582228 -0.0098721494510148958 -0.013568280034122013 -0.011647600233554841 -0.012513598818809557
leaf_weight=20 25 34 29 35 23 22 24 21 20 39
leaf_count=20 25 34 29 35 23 22 24 21 20 39
internal_value=0 -0.00710955 0.00597367 -0.01115 -0.0118329 -0.0122721 -0.0112332 -0.0127203 -0.0125004 -0.01278
internal_weight=0 267 63 204 169 146 44 102 81 61
internal_count=292 267 63 204 169 146 44 102 81 61
is_linear=0
shrinkage=0.05


Tree=14
num_leaves=11
num_cat=0
split_feature=19 19 21 39 19 1 27 22 13 5
split_gain=36.2786 5.09516 1.55238 0.297407 0.165867 0.0748134 0.0291016 0.00809341 0.00641259 0.00200833
threshold=0.96521251007586506 -0.15622079234927702 0.75286949785395096 -0.5313851325867639 -0.36648953655399114 0.99460302888220187 -0.37023741698005147 0.32458719357355814 -0.49260494917247427 -0.63846879579500138
decision_type=2 2 2 2 2 2 2 2 2 2
left_child=1 4 3 -3 5 6 -1 8 -8 -10
right_child=-2 2 -4 -5 -6 -7 7 -9 9 -11
leaf_value=-0.010422003145019215 0.056234369382262228 -0.0039339133693526186 0.017183487992733719 0.0043848543798296969 -0.0074595700383984628 -0.008929846077707821 -0.011233441717922689 -0.012771599852677548 -0.012569849342107774 -0.011903403011652139
leaf_weight=33 25 21 20 22 35 29 28 33 20 26
leaf_count=33 25 21 20 22 35 29 28 33 20 26
internal_value=0 -0.00675407 0.00567499 0.0003222 -0.0105925 -0.0112413 -0.0117201 -0.0121204 -0.01183 -0.0121932
internal_weight=0 267 63 43 204 169 140 107 74 46
internal_count=292 267 63 43 204 169 140 107 74 46
is_linear=0
shrinkage=0.05


Tree=15
num_leaves=11
num_cat=0
split_feature=19 19 6 19 23 13 19 34 16 36
split_gain=71.5662 4.13743 0.666326 0.299074 0.160915 0.0399552 0.0582538 0.0125189 0.00547007 0.00666832
threshold=1.8062874868947214 1.0000000180025095e-35 1.0000000180025095e-35 -0.29639995515241974 0.95798456801658449 -0.57906765197011933 -0.43657911795556248 0.90109464857751209 0.25000000000000017 -0.33021293588575146
decision_type=2 2 2 2 2 2 2 2 2 2
left_child=1 3 -3 4 5 6 -1 8 9 -7
right_child=-2 2 -4 -5 -6 7 -8 -9 -10 -11
leaf_value=-0.010994566965735321 0.08558157980442048 0.0014749196679170792 0.013014452045106076 -0.005229557949739198 -0.0059972342662513263 -0.01178025093395263 -0.0076729828407141295 -0.010302775462522456 -0.012189874053001405 -0.010633599545274463
leaf_weight=33 23 29 22 36 20 32 22 23 28 21
leaf_count=33 23 29 22 36 20 32 22 23 28 21
internal_value=0 -0.00635075 0.00645276 -0.00938786 -0.0102242 -0.0107559 -0.00966593 -0.0113322 -0.0116246 -0.0113259
internal_weight=0 266 51 215 179 159 55 104 81 53
internal_count=289 266 51 215 179 159 55 104 81 53
is_linear=0
shrinkage=0.05


Tree=16
num_leaves=11
num_cat=0
split_feature=19 19 6 19 1 19 2 30 33 9
split_gain=64.5885 3.73403 0.601359 0.269915 0.136471 0.02824 0.0552151 0.007159 0.0080446 0.00657122
threshold=1.8062874868947214 1.0000000180025095e-35 1.0000000180025095e-35 -0.29639995515241974 0.99460302888220187 -0.43657911795556248 0.016886491372157371 -0.22842098748750542 -0.15177502785295138 -0.67312799920567878
decision_type=2 2 2 2 2 2 2 2 2 2
left_child=1 3 -3 4 5 7 -7 -1 9 -9
right_child=-2 2 -4 -5 -6 6 -8 8 -10 -11
leaf_value=-0.011465765407373166 0.081302502435510571 0.0014011738211687271 0.012363729229069908 -0.0049680800668688288 -0.0064372579498147529 -0.0077764462369183706 -0.01094542575551064 -0.010703910284099125 -0.011197652805734565 -0.009437541384249926
leaf_weight=29 23 29 22 36 27 27 28 21 27 20
leaf_count=29 23 29 22 36 27 27 28 21 27 20
internal_value=0 -0.00603321 0.00613012 -0.00891846 -0.00971295 -0.0102948 -0.00938974 -0.010808 -0.0105275 -0.0100862
internal_weight=0 266 51 215 179 152 55 97 68 41
internal_count=289 266 51 215 179 152 55 97 68 41
is_linear=0
shrinkage=0.05


Tree=17
num_leaves=10
num_cat=0
split_feature=19 19 3 19 23 13 9 40 18
split_gain=58.2911 3.36996 0.524968 0.243598 0.143857 0.0361368 0.0537765 0.0130359 0.00336014
threshold=1.8062874868947214 1.0000000180025095e-35 -0.049698435693836036 -0.29639995515241974 0.95798456801658449 -0.57906765197011933 -0.46394752590080607 0.07344332337996877 -0.46472317204165758
decision_type=2 2 2 2 2 2 2 2 2
left_child=1 3 -3 4 5 6 -1 8 -7
right_child=-2 2 -4 -5 -6 7 -8 -9 -10
leaf_value=-0.0071013528267266576 0.077237378587217437 0.012139250723412261 0.0017490083501944618 -0.0047196760553763146 -0.0052306916075758637 -0.010346188328482888 -0.010228776239923069 -0.0095404490865276838 -0.01105970907391924
leaf_weight=27 23 20 31 36 20 33 28 38 33
leaf_count=27 23 20 31 36 20 33 28 38 33
internal_value=0 -0.00573155 0.00582361 -0.00847254 -0.00922731 -0.00973002 -0.0086935 -0.0102782 -0.0107029
internal_weight=0 266 51 215 179 159 55 104 66
internal_count=289 266 51 215 179 159 55 104 66
is_linear=0
shrinkage=0.05


Tree=18
num_leaves=11
num_cat=0
split_feature=19 19 6 24 14 35 5 4 2 14
split_gain=52.6078 3.04139 0.502917 0.225073 0.177418 0.111643 0.0380633 0.0237633 0.0215877 0.0149961
threshold=1.8062874868947214 1.0000000180025095e-35 1.0000000180025095e-35 0.91193954494062246 737047.50000000012 -0.8901772309872733 -0.97618832651570775 -0.82493739488107587 0.39702206248019517 736375.50000000012
decision_type=2 2 2 2 2 2 2 2 2 2
left_child=1 3 -3 4 5 -1 -7 -8 9 -9
right_child=-2 2 -4 -5 -6 6 7 8 -10 -11
leaf_value=-0.0060757670632523046 0.073375508059626046 0.0012078362356485993 0.011233037081547083 -0.0041802298728725873 -0.0045138248644599858 -0.0082956734263608528 -0.0087312945257872338 -0.010738356234995944 -0.01184904920653655 -0.0091207640002603126
leaf_weight=23 23 29 22 32 22 31 20 38 26 23
leaf_count=23 23 29 22 32 22 31 20 38 26 23
internal_value=0 -0.00544497 0.00553243 -0.00804891 -0.0087254 -0.0093009 -0.00983842 -0.0102854 -0.0106426 -0.0101284
internal_weight=0 266 51 215 183 161 138 107 87 61
internal_count=289 266 51 215 183 161 138 107 87 61
is_linear=0
shrinkage=0.05


Tree=19
num_leaves=11
num_cat=0
split_feature=20 20 37 17 10 17 20 1 37 13
split_gain=42.1068 3.61697 0.738028 0.137465 0.132697 0.102691 0.0968789 0.0527348 0.0340586 0.00397498
threshold=1.8068662662858075 1.0000000180025095e-35 0.39735703696688895 -0.46472317204467045 0.88210852252002436 -0.93501624268591843 -0.36571644450089674 0.60710097035252697 -0.57499776746979592 -0.43237939554853894
decision_type=2 2 2 2 2 2 2 2 2 2
left_child=1 3 -3 5 6 -1 8 -7 -5 -10
right_child=-2 2 -4 4 -6 7 -8 -9 9 -11
leaf_value=-0.0066324971785599544 0.065690909941559253 0.0022932172258151697 0.014537072880193591 -0.0072080008849939887 -0.0032274632910478185 -0.009405935962374011 -0.0053647062831595057 -0.012720513287931681 -0.0088213741313666102 -0.0097313852359851207
leaf_weight=22 23 32 20 34 22 30 38 20 24 24
leaf_count=22 23 32 20 34 22 30 38 20 24 24
internal_value=0 -0.00482549 0.00700239 -0.00769955 -0.00679719 -0.00947921 -0.00745164 -0.0107318 -0.00841876 -0.00927638
internal_weight=0 266 52 214 142 72 120 50 82 48
internal_count=289 266 52 214 142 72 120 50 82 48
is_linear=0
shrinkage=0.05


Tree=20
num_leaves=11
num_cat=0
split_feature=19 19 21 19 36 36 0 1 33 9
split_gain=38.7012 4.40317 1.77085 0.167719 0.113239 0.0332212 0.0247255 0.0102578 0.00460164 0.00279417
threshold=1.5960187426900074 1.0000000180025095e-35 0.87394812373869601 -0.29639995515241974 0.7280543879987692 -1.0054991539152034 201827.50000000003 0.9445129961817843 -0.33638439891501098 -0.51160578993033656
decision_type=2 2 2 2 2 2 2 2 2 2
left_child=1 3 -3 4 5 -1 7 8 9 -7
right_child=-2 2 -4 -5 -6 6 -8 -9 -10 -11
leaf_value=-0.0069486088458109987 0.067761967210099111 0.0014124232708127239 0.020378261273726824 -0.0045402836242619043 -0.0053664421398813529 -0.0091246465401303382 -0.0074468792654806748 -0.010384196005761624 -0.0086641665322310987 -0.0098826750740408902
leaf_weight=22 20 32 20 39 30 31 20 20 33 20
leaf_count=22 20 32 20 39 30 31 20 20 33 20
internal_value=0 -0.00434917 0.00870698 -0.00750693 -0.00816431 -0.00873922 -0.00905691 -0.00936653 -0.00912423 -0.00942191
internal_weight=0 267 52 215 176 146 124 104 84 51
internal_count=287 267 52 215 176 146 124 104 84 51
is_linear=0
shrinkage=0.05


Tree=21
num_leaves=11
num_cat=0
split_feature=19 19 21 24 39 23 0 27 27 35
split_gain=34.9278 3.97387 1.59819 0.252321 0.151474 0.0394985 0.0329153 0.0169863 0.0279589 0.0123831
threshold=1.5960187426900074 1.0000000180025095e-35 0.87394812373869601 0.91193954494062246 -0.86974910968684471 0.48628811706229863 201836.50000000003 0.17367710317189114 0.45434139919785443 -0.43031198966010414
decision_type=2 2 2 2 2 2 2 2 2 2
left_child=1 3 -3 4 -1 6 7 9 -9 -6
right_child=-2 2 -4 -5 5 -7 -8 8 -10 -11
leaf_value=-0.0048062430715243168 0.064373869262635705 0.0013418020898825489 0.019359348444268107 -0.0028780273006608088 -0.008380434482262054 -0.010458441789854658 -0.0063017503288574517 -0.0067392966537563898 -0.0090597889572381976 -0.009854593500494958
leaf_weight=34 20 32 20 30 29 22 20 27 25 28
leaf_count=34 20 32 20 30 29 22 20 27 25 28
internal_value=0 -0.00413171 0.00827163 -0.00713158 -0.00782135 -0.00850025 -0.00816629 -0.00850841 -0.00785492 -0.00910458
internal_weight=0 267 52 215 185 151 129 109 52 57
internal_count=287 267 52 215 185 151 129 109 52 57
is_linear=0
shrinkage=0.05


Tree=22
num_leaves=12
num_cat=0
split_feature=19 19 21 24 33 39 24 13 18 31 29
split_gain=31.5223 3.58641 1.44236 0.227719 0.149195 0.199864 0.0284715 0.0119327 0.0226827 0.0193668 0.017902
threshold=1.5960187426900074 1.0000000180025095e-35 0.87394812373869601 0.91193954494062246 -0.84557898316341495 -0.9492384543577379 0.46981883954919829 -0.57906765197011933 0.74851074817025676 0.64042140654783231 0.79584141604818981
decision_type=2 2 2 2 2 2 2 2 2 2 2
left_child=1 3 -3 4 5 -1 7 10 9 -9 -6
right_child=-2 2 -4 -5 6 -7 -8 8 -10 -11 -12
leaf_value=-0.0082611781125888229 0.061155174309387807 0.0012747118307743222 0.018391380910761656 -0.0027341259067179637 -0.0081593573984244591 -0.0011925212922506035 -0.0098327143117785468 -0.0078866012860089544 -0.0067825481569161643 -0.0096872146906597286 -0.0061139650642871857
leaf_weight=20 20 32 20 30 23 20 22 32 20 28 20
leaf_count=20 20 32 20 30 23 20 22 32 20 28 20
internal_value=0 -0.00392512 0.00785805 -0.00677501 -0.00743028 -0.00472685 -0.00817606 -0.00787975 -0.0082408 -0.00872689 -0.00720801
internal_weight=0 267 52 215 185 40 145 123 80 60 43
internal_count=287 267 52 215 185 40 145 123 80 60 43
is_linear=0
shrinkage=0.05


Tree=23
num_leaves=12
num_cat=0
split_feature=19 19 35 24 33 35 24 35 35 26 13
split_gain=28.4489 3.23674 0.525229 0.205517 0.134649 0.180377 0.0256955 0.014969 0.0155563 0.0298802 0.0193741
threshold=1.5960187426900074 1.0000000180025095e-35 1.0000000180025095e-35 0.91193954494062246 -0.84557898316341495 -1.0119045654487657 0.46981883954919829 0.82896929495232052 -0.29161064733843844 -0.46695974644450861 -0.56867974054942505
decision_type=2 2 2 2 2 2 2 2 2 2 2
left_child=1 3 -3 4 5 -1 7 8 10 -10 -6
right_child=-2 2 -4 -5 6 -7 -8 -9 9 -11 -12
leaf_value=-0.0078481193399056789 0.058097416795790197 0.0028128258800799296 0.012892848105790715 -0.0025974195687740575 -0.00608444140981073 -0.0011328951804898679 -0.009341078454797919 -0.0062701189047878695 -0.0098064839307750989 -0.0071060768887400627 -0.0079230513815817093
leaf_weight=20 20 28 24 30 23 20 22 21 21 20 38
leaf_count=20 20 28 24 30 23 20 22 21 21 20 38
internal_value=0 -0.00372887 0.00746514 -0.00643626 -0.00705877 -0.00449051 -0.00776726 -0.00748576 -0.00773604 -0.00848921 -0.0072298
internal_weight=0 267 52 215 185 40 145 123 102 41 61
internal_count=287 267 52 215 185 40 145 123 102 41 61
is_linear=0
shrinkage=0.05


Tree=24
num_leaves=11
num_cat=0
split_feature=19 19 21 24 33 35 24 35 13 29
split_gain=25.6751 2.92116 1.25773 0.185479 0.121521 0.16279 0.0231902 0.0135096 0.0142093 0.0089407
threshold=1.5960187426900074 1.0000000180025095e-35 0.87394812373869601 0.91193954494062246 -0.84557898316341495 -1.0119045654487657 0.46981883954919829 0.82896929495232052 -0.57906765197011933 0.35085361848206814
decision_type=2 2 2 2 2 2 2 2 2 2
left_child=1 3 -3 4 5 -1 7 8 -6 -10
right_child=-2 2 -4 -5 6 -7 -8 -9 9 -11
leaf_value=-0.0074557133205235011 0.055192543484736234 0.00094433465274050836 0.016927970033138989 -0.0024675486442477753 -0.0065670447927471762 -0.0010762504441663623 -0.0088740245523777888 -0.0059566129109866568 -0.0071610905975103382 -0.0083373897735561642
leaf_weight=20 20 32 20 30 37 20 22 21 30 35
leaf_count=20 20 32 20 30 37 20 22 21 30 35
internal_value=0 -0.00354242 0.00709189 -0.00611444 -0.00670583 -0.00426598 -0.00737889 -0.00711147 -0.00734924 -0.00779448
internal_weight=0 267 52 215 185 40 145 123 102 65
internal_count=287 267 52 215 185 40 145 123 102 65
is_linear=0
shrinkage=0.05


Tree=25
num_leaves=13
num_cat=0
split_feature=20 20 22 23 0 17 11 26 25 2 22 13
split_gain=23.0378 3.10499 1.52729 0.318063 0.172176 0.132852 0.328754 0.0672868 0.0393053 0.0129272 0.016598 0.00273345
threshold=1.8068662662858075 -0.085383191496160804 0.83598019406261959 -0.28245311925240396 201851.50000000003 0.56806474673282314 -0.14001546066896994 0.63670391071183607 -1.0468053185132022 0.39702206248019517 0.58550198974144851 -0.16608328834619526
decision_type=2 2 2 2 2 2 2 2 2 2 2 2
left_child=1 4 3 -3 5 7 -7 8 -1 10 11 -10
right_child=-2 2 -4 -5 -6 6 -8 -9 9 -11 -12 -13
leaf_value=-0.0052512602321803572 0.049882649562575598 0.0055773729414102585 0.018013808950781824 -0.0031248819881251884 -0.002029381482861936 -0.0076626027580992935 0.00067017360881436614 -0.0098880216656696239 -0.007843696279451251 -0.0082065800911393667 -0.0057782016378561301 -0.0070721040225841794
leaf_weight=30 22 21 20 21 24 29 20 21 24 29 21 22
leaf_count=30 22 21 20 21 24 29 20 21 24 29 21 22
internal_value=0 -0.00324146 0.00664159 0.00122625 -0.00602669 -0.00651615 -0.00426147 -0.00726772 -0.006831 -0.00732467 -0.00694294 -0.00747467
internal_weight=0 282 62 42 220 196 49 147 126 96 67 46
internal_count=304 282 62 42 220 196 49 147 126 96 67 46
is_linear=0
shrinkage=0.05


Tree=26
num_leaves=12
num_cat=0
split_feature=19 19 27 19 33 7 22 25 21 7 21
split_gain=25.4382 2.29278 1.07685 0.178667 0.207218 0.0623144 0.0400089 0.0361039 0.0118681 0.0102801 0.00328854
threshold=1.8062874868947214 1.0000000180025095e-35 0.41292758670000157 -0.36648953655399114 0.1568381431449026 0.85235993765365692 1.0447120309969413 -1.0468053185132022 0.75286949785395096 0.8583084406349758 -0.20740925916303291
decision_type=2 2 2 2 2 2 2 2 2 2 2
left_child=1 3 -3 6 5 -5 7 -1 9 10 -9
right_child=-2 2 -4 4 -6 -7 -8 8 -10 -11 -12
leaf_value=-0.005352726539907357 0.053668698029858734 0.00052598712758885496 0.014996242650959175 -0.0033664131257683041 0.00089335019350983208 -0.0073133861692622308 -0.0043450665590353309 -0.0070489621966292985 -0.0082452282486926952 -0.0062057493400061508 -0.0078410598076879973
leaf_weight=36 21 36 20 20 20 20 20 38 21 32 20
leaf_count=36 21 36 20 20 20 20 20 38 21 32 20
internal_value=0 -0.00336708 0.00569394 -0.0056024 -0.00326215 -0.0053399 -0.0064432 -0.00672866 -0.00717491 -0.00692517 -0.0073221
internal_weight=0 283 56 227 60 40 167 147 111 90 58
internal_count=304 283 56 227 60 40 167 147 111 90 58
is_linear=0
shrinkage=0.05


end of trees

feature_importances:
cases_lag1=74
nearby_cases_weighted=16
cases_lag2=13
precipitation_avg_ordinary_kriging=11
week_sin=11
tempe_min_lag5=11
precipitation_avg_ordinary_kriging_lag5=11
precipitation_max_ordinary_kriging_lag5=11
temp_avg_lag6=9
humidity_max_lag5=9
week=8
tempe_min=8
tempe_min_lag6=8
temp_avg_lag5=7
month_cos=6
precipitation_max_ordinary_kriging_lag6=6
precipitation_max_regression_kriging_lag5=6
temp_max_lag5=5
humidity_max_lag6=5
precipitation_avg_ordinary_kriging_lag6=5
humidity_max=4
precipitation_max_ordinary_kriging=4
precipitation_max_regression_kriging=4
temp_avg=3
temp_max=3
humidity_avg_lag6=3
humidity_min_lag5=3
humidity_avg=2
humidity_min=2
vim=2
precipitation_avg_regression_kriging=2
date_ordinal=2
week_cos=2
temp_max_lag6=2
humidity_avg_lag5=2
humidity_min_lag6=2
precipitation_avg_regression_kriging_lag5=2
precipitation_max_regression_kriging_lag6=2
precipitation_avg_regression_kriging_lag6=1

parameters:
[boosting: gbdt]
[objective: regression]
[metric: rmse]
[tree_learner: serial]
[device_type: cpu]
[data_sample_strategy: bagging]
[data: ]
[valid: ]
[num_iterations: 1000]
[learning_rate: 0.05]
[num_leaves: 31]
[num_threads: 0]
[seed: 0]
[deterministic: 0]
[force_col_wise: 0]
[force_row_wise: 0]
[histogram_pool_size: -1]
[max_depth: -1]
[min_data_in_leaf: 20]
[min_sum_hessian_in_leaf: 0.001]
[bagging_fraction: 0.8]
[pos_bagging_fraction: 1]
[neg_bagging_fraction: 1]
[bagging_freq: 5]
[bagging_seed: 3]
[feature_fraction: 0.8]
[feature_fraction_bynode: 1]
[feature_fraction_seed: 2]
[extra_trees: 0]
[extra_seed: 6]
[early_stopping_round: 0]
[early_stopping_min_delta: 0]
[first_metric_only: 0]
[max_delta_step: 0]
[lambda_l1: 0]
[lambda_l2: 0]
[linear_lambda: 0]
[min_gain_to_split: 0]
[drop_rate: 0.1]
[max_drop: 50]
[skip_drop: 0.5]
[xgboost_dart_mode: 0]
[uniform_drop: 0]
[drop_seed: 4]
[top_rate: 0.2]
[other_rate: 0.1]
[min_data_per_group: 100]
[max_cat_threshold: 32]
[cat_l2: 10]
[cat_smooth: 10]
[max_cat_to_onehot: 4]
[top_k: 20]
[monotone_constraints: ]
[monotone_constraints_method: basic]
[monotone_penalty: 0]
[feature_contri: ]
[forcedsplits_filename: ]
[refit_decay_rate: 0.9]
[cegb_tradeoff: 1]
[cegb_penalty_split: 0]
[cegb_penalty_feature_lazy: ]
[cegb_penalty_feature_coupled: ]
[path_smooth: 0]
[interaction_constraints: ]
[verbosity: -1]
[saved_feature_importance_type: 0]
[use_quantized_grad: 0]
[num_grad_quant_bins: 4]
[quant_train_renew_leaf: 0]
[stochastic_rounding: 1]
[linear_tree: 0]
[max_bin: 255]
[max_bin_by_feature: ]
[min_data_in_bin: 3]
[bin_construct_sample_cnt: 200000]
[data_random_seed: 1]
[is_enable_sparse: 1]
[enable_bundle: 1]
[use_missing: 1]
[zero_as_missing: 0]
[feature_pre_filter: 1]
[pre_partition: 0]
[two_round: 0]
[header: 0]
[label_column: ]
[weight_column: ]
[group_column: ]
[ignore_column: ]
[categorical_feature: ]
[forcedbins_filename: ]
[precise_float_parser: 0]
[parser_config_file: ]
[objective_seed: 5]
[num_class: 1]
[is_unbalance: 0]
[scale_pos_weight: 1]
[sigmoid: 1]
[boost_from_average: 1]
[reg_sqrt: 0]
[alpha: 0.9]
[fair_c: 1]
[poisson_max_delta_step: 0.7]
[tweedie_variance_power: 1.5]
[lambdarank_truncation_level: 30]
[lambdarank_norm: 1]
[label_gain: ]
[lambdarank_position_bias_regularization: 0]
[eval_at: ]
[multi_error_top_k: 1]
[auc_mu_weights: ]
[num_machines: 1]
[local_listen_port: 12400]
[time_out: 120]
[machine_list_filename: ]
[machines: ]
[gpu_platform_id: -1]
[gpu_device_id: -1]
[gpu_use_dp: 0]
[num_gpu: 1]

end of parameters

pandas_categorical:[]
