tree
version=v4
num_class=1
num_tree_per_iteration=1
label_index=0
max_feature_idx=12
objective=regression
feature_names=week cases_per_100k temp_avg humidity_avg vim month_sin month_cos week_sin week_cos cases_lag0 cases_lag1 precipitation_avg_ordinary_kriging_lag3 precipitation_avg_ordinary_kriging_lag4
feature_infos=[201205:202053] [-0.21733861223398251:36.376517673433945] [-4.9613670283396605:2.7165170155686322] [-4.506370513434617:13.948183920321533] [-4.1726287290456909:1.8847474611184181] [-1:1] [-1:1] [-1:1] [-1:1] [-0.083865066052807385:63.443935506404898] [-0.084095154512979137:63.38758407979136] [-1.0311045453548684:5.9488514371004175] [-1.0310163213409336:5.9470707685754034]
tree_sizes=2785 2776 2789 2799 2787 2789 2787 2783 2797 2793 2795 2790 2809 2795 2790 2809 2790 2815 2815 2814 2844 2810 2826 2825 2800 2802 2815 2811 2817 2806 2837 2834 2823 2828 2832 2837 2836 2839 2832 2834 2831 2852 2820 2822 2818 2858 2838 2839 2834 2837 2821 2845 2875 2816 2848 2840 2863 2839 2862 2859 2865 2829 2857 2840 2851 2846 2854 2882 2851 2866 2875 2868 2843 2882 2871 2872 2851 2878 2871 2862 2852 2868 2873 2848 2923 2869 2855 2874 2894 2870 2865 2856 2878 2895 2891 2910 2896 2895 2905 2901 2885 2858 2898 2900 2894 2875 2927 2902 2872 2912 2912 2890 2887 2893 2883 2879 2891 2925 2900 2883 2889

Tree=0
num_leaves=31
num_cat=0
split_feature=9 9 9 9 9 9 9 9 9 9 9 9 2 2 11 6 9 9 10 9 7 9 9 9 6 2 2 0 6 6
split_gain=25209.3 2883.54 650.857 399.165 122.367 104.806 85.9523 26.6676 22.2901 14.2719 13.2752 8.75849 6.51933 5.27035 2.9836 2.55502 2.48066 2.25816 1.80766 1.78649 1.65323 1.60549 1.58219 1.41914 1.22607 0.989494 0.77325 0.671822 0.551315 0.535755
threshold=13.079105578804745 2.4968978413474838 0.45820312621286047 5.3281783196753354 1.3587706010127947 0.056511159035911362 6.9738196045615455 3.7300489878960748 0.82534094567566341 0.21632409221383736 -0.042832015642258824 1.6244056115652934 0.355198097477949 0.49290395428058525 1.0016758106658081 1.0000000180025095e-35 0.33294434074908069 0.7130399656046883 1.1652284202987635 -0.073066894892136705 0.88545602565266845 0.9549189996037114 0.1213001859999354 -0.00827786792811268 1.0000000180025095e-35 -0.33294418432559775 0.14693873039554009 201224.50000000003 -0.24999999999999994 0.93301270189221952
decision_type=2 2 2 2 2 2 2 2 2 2 2 2 2 2 2 2 2 2 2 2 2 2 2 2 2 2 2 2 2 2
left_child=1 2 5 7 8 10 -5 13 17 22 19 -6 25 -3 -14 21 -11 24 20 -1 -17 -10 -7 -12 27 -13 -18 -4 -19 -24
right_child=-2 3 4 6 11 9 -8 -9 15 16 23 12 14 -15 -16 18 26 28 -20 -21 -22 -23 29 -25 -26 -27 -28 -29 -30 -31
leaf_value=-0.004053327585012945 1.5872874586173951 0.13444145287419496 0.031216135624303178 0.29512516063162458 0.071613612419639372 0.0042954566566563183 0.4365455527237968 0.21302367756312851 0.031812991818568039 0.013041010715317597 -0.0013149145239210673 0.078544776694028373 0.1020944253990113 0.16714420380937789 0.12800408263892524 0.046854738679668537 0.015569163070836093 0.032650705102986025 0.067677924830621405 -0.0029799280808834598 0.061806665096073035 0.048170918200319941 0.0076639624420447175 0.00090432701663374182 0.030238239567079779 0.09389384323533681 0.021872849463329638 0.02172986229961104 0.040952172439700299 0.014780777597688704
leaf_weight=23919 25 22 23 22 38 626 21 29 20 342 1646 21 25 28 20 51 72 40 25 4626 29 60 476 1281 153 21 150 99 40 28
leaf_count=23919 25 22 23 22 38 626 21 29 20 342 1646 21 25 28 20 51 72 40 25 4626 29 60 476 1281 153 21 150 99 40 28
internal_value=1.97595e-10 -0.00104141 -0.00191643 0.241604 0.0470605 -0.00289844 0.364191 0.174879 0.0367412 0.00921653 -0.00355054 0.0916398 0.100387 0.152755 0.11361 0.0508132 0.0157126 0.0294079 0.0559422 -0.00387937 0.0522748 0.0440814 0.00597422 -0.000343665 0.027257 0.0862193 0.0198284 0.0235183 0.0368014 0.00805934
internal_weight=0 33953 33831 122 665 33166 43 79 540 1694 31472 125 87 50 45 185 564 355 105 28545 80 80 1130 2927 275 42 222 122 80 504
internal_count=33978 33953 33831 122 665 33166 43 79 540 1694 31472 125 87 50 45 185 564 355 105 28545 80 80 1130 2927 275 42 222 122 80 504
is_linear=0
shrinkage=1


Tree=1
num_leaves=31
num_cat=0
split_feature=9 9 9 9 9 9 9 9 9 9 9 9 11 9 9 11 8 8 9 9 3 9 9 9 7 11 9 9 12 0
split_gain=22751.4 2602.5 570.461 381.07 102.472 94.5876 77.572 27.5187 20.1168 12.9045 12.0202 7.16864 4.29702 3.95008 2.53811 2.33199 2.3342 2.14302 2.03799 1.69992 1.6721 1.60147 1.28912 1.20454 0.676194 0.5308 0.584723 0.484786 0.469093 0.467831
threshold=13.079105578804745 2.3802775928122406 0.45820312621286047 5.3281783196753354 1.3587706010127947 0.056511159035911362 6.9738196045615455 3.7300489878960748 0.82534094567566341 0.20336628682103255 -0.047151284106527101 1.6244056115652934 1.0016758106658081 3.04328530207742 0.33294434074908069 0.65435452515074244 -0.23931566428722484 1.0000000180025095e-35 0.7130399656046883 1.0888163219960278 0.33179949602580777 -0.012597136392380951 -0.073066894892136705 0.09970384367859407 0.82298386589334227 0.56255703777457489 0.5359499585696893 0.9549189996037114 2.635063460717666 201310.50000000003
decision_type=2 2 2 2 2 2 2 2 2 2 2 2 2 2 2 2 2 2 2 2 2 2 2 2 2 2 2 2 2 2
left_child=1 2 5 7 8 10 -5 13 18 23 22 -6 17 -3 29 19 -17 -13 25 27 -18 -12 -1 -7 -16 26 -4 -10 -25 -11
right_child=-2 3 4 6 11 9 -8 -9 15 14 21 12 -14 -15 24 16 20 -19 -20 -21 -22 -23 -24 28 -26 -27 -28 -29 -30 -31
leaf_value=-0.0038506615520659754 1.5079230632781984 0.13164905432392568 0.020498863235116006 0.28036890842697842 0.068032929222834743 0.0035260569605988601 0.41471828335807442 0.20237249423717629 0.034957907886968724 0.015387068190720193 -0.0014775887870400652 0.078339397139621514 0.11110201821877407 0.15922974745432539 0.017042094968163817 0.043088313505053523 0.071196306496858597 0.098221202000327745 0.03496136685833335 0.051543482393026356 0.052112601426514721 0.0007431410632533649 -0.0029046122459609061 0.0066481240047295345 0.023079468445344406 0.028427993585118806 0.02665694724412614 0.043283270343261605 0.014249201298558287 0.011207053939340057
leaf_weight=23919 25 34 68 22 38 456 21 29 36 86 1892 33 26 21 156 25 24 23 80 44 22 1422 4239 607 66 118 89 34 21 302
leaf_count=23919 25 34 68 22 38 456 21 29 36 86 1892 33 26 21 156 25 24 23 80 44 22 1422 4239 607 66 118 89 34 21 302
internal_value=0 -0.000989338 -0.00183755 0.224928 0.0441915 -0.00275352 0.345981 0.162961 0.0349041 0.0087557 -0.00337301 0.0859849 0.0943041 0.14218 0.0145732 0.0482726 0.0553859 0.0865051 0.0279375 0.0438424 0.0620693 -0.000524699 -0.00370824 0.00548204 0.018837 0.0258942 0.0239898 0.0390017 0.0069023 0.0121336
internal_weight=0 33953 33826 127 660 33166 43 84 540 1694 31472 120 82 55 610 185 71 56 355 114 46 3314 28158 1084 222 275 157 70 628 388
internal_count=33978 33953 33826 127 660 33166 43 84 540 1694 31472 120 82 55 610 185 71 56 355 114 46 3314 28158 1084 222 275 157 70 628 388
is_linear=0
shrinkage=0.05


Tree=2
num_leaves=31
num_cat=0
split_feature=9 9 9 9 9 9 9 9 9 9 2 9 2 3 9 11 9 9 6 6 9 2 3 9 2 4 2 4 6 2
split_gain=20636.1 2795.61 619.915 529.961 113.351 99.5171 85.3653 18.2182 11.6624 10.873 7.83754 7.10413 5.66408 5.24803 3.22854 2.4621 2.01208 1.73591 1.68136 1.56068 1.31394 1.04635 0.916236 0.890076 0.812306 0.685011 0.67739 0.590463 0.502079 0.488053
threshold=16.724568162647167 2.4968978413474838 7.3711923032742268 0.45820312621286047 4.4340897475718029 1.3587706010127947 0.056511159035911362 0.76487118717590763 0.21632409221383736 -0.051470552570795365 0.49290395428058525 1.6244056115652934 0.355198097477949 0.1141778353296253 0.9549189996037114 1.0016758106658081 0.33726360921334891 -0.012597136392380951 1.0000000180025095e-35 1.0000000180025095e-35 0.1213001859999354 0.20527200980250029 0.12238875318105062 -0.073066894892136705 -0.33294418432559775 0.69270438201894435 0.14693873039554009 -0.19579456813213383 -0.68301270189221952 1.0397872827237582
decision_type=2 2 2 2 2 2 2 2 2 2 2 2 2 2 2 2 2 2 2 2 2 2 2 2 2 2 2 2 2 2
left_child=1 3 4 6 10 7 9 21 20 23 -3 -7 24 -6 18 -14 28 -11 -9 27 -8 -5 -21 -1 -13 -20 -18 -16 -10 -22
right_child=-2 2 -4 5 13 11 8 14 16 17 -12 12 15 -15 19 -17 26 -19 25 22 29 -23 -24 -25 -26 -27 -28 -29 -30 -31
leaf_value=-0.0036581284911381892 1.567009446734474 0.1256916763321046 0.48221675100780675 0.021859333593066233 0.23274069249629978 0.064631285714475725 0.0038571315414962929 0.029096321933544601 0.0083832570794038479 -0.0015159753739926783 0.16045299330178431 0.07038587221787089 0.092409423232078555 0.26896232247352597 0.049869834428483792 0.1159460410475731 0.013906418381820379 0.00070598398566921604 0.046244522705674175 0.060388325019316236 0.006601274506187825 0.027739172207975324 0.048692934697165208 -0.0028370491215361699 0.084292931216103706 0.035260196368802676 0.019954823598522565 0.039576906789290281 0.012891215618143057 0.010816836186752814
leaf_weight=23919 21 31 21 129 20 38 626 39 80 2302 34 21 25 20 22 20 68 1422 40 33 422 183 34 3829 21 22 145 38 271 82
leaf_count=23919 21 31 21 129 20 38 626 39 80 2302 34 21 25 20 22 20 68 1422 40 33 422 183 34 3829 21 22 145 38 271 82
internal_value=0 -0.000854183 0.234226 -0.00172971 0.184628 0.042465 -0.00261585 0.0331589 0.00831792 -0.00320436 0.143875 0.0826672 0.090545 0.250852 0.0439022 0.10287 0.0141902 -0.000667526 0.0372303 0.0492081 0.00538698 0.0253081 0.0544534 -0.00354483 0.0773394 0.0423469 0.0180239 0.043351 0.0118638 0.00728714
internal_weight=0 33957 126 33831 105 665 33166 540 1694 31472 65 125 87 40 228 45 564 3724 101 127 1130 312 67 27748 42 62 213 60 351 504
internal_count=33978 33957 126 33831 105 665 33166 540 1694 31472 65 125 87 40 228 45 564 3724 101 127 1130 312 67 27748 42 62 213 60 351 504
is_linear=0
shrinkage=0.05


Tree=3
num_leaves=31
num_cat=0
split_feature=10 10 10 10 7 10 10 10 2 2 10 10 10 8 10 3 4 2 2 2 3 10 0 2 4 1 2 0 8 10
split_gain=18084.2 1961.64 434.869 248.802 117.888 84.3779 74.0144 26.7849 26.8474 12.1778 11.6768 10.3789 9.4329 9.21827 6.2073 4.92631 3.96525 3.15336 3.09939 2.10548 1.53709 1.48325 1.45794 1.44049 1.59106 1.3011 1.13019 0.984592 1.03037 0.95387
threshold=12.501922828003245 2.2915615913725622 0.45749416721024599 5.3598485056770491 0.66312265824192096 1.1652284202987635 0.060472513038638709 3.221541661741925 0.17475227986942324 0.28914652311507361 -0.04309835326699795 1.6226664131486588 0.20288245420888915 -0.56806474673086049 0.76389131336442118 -0.13215013904224004 0.079648548659268154 0.56734722303659357 0.020444042450282484 0.20527200980250029 -1.1304138953819611 -0.073306522606141969 201308.50000000003 -0.68109879979650778 -0.19579456813213383 1.4663677866533888 0.21282926685710671 201603.50000000003 0.12053668025561591 -0.004259278402384211
decision_type=2 2 2 2 2 2 2 2 2 2 2 2 2 2 2 2 2 2 2 2 2 2 2 2 2 2 2 2 2 2
left_child=1 2 6 7 -5 14 10 13 -9 23 21 16 26 -3 17 -13 -11 -4 -14 -16 -20 -1 -19 -7 -25 29 -8 28 -21 -12
right_child=-2 3 5 4 -6 9 12 8 -10 11 25 15 18 -15 19 -17 -18 22 20 27 -22 -23 -24 24 -26 -27 -28 -29 -30 -31
leaf_value=-0.0034606616334403751 1.3182633665891794 0.093931573487463449 0.019872621838746829 0.21264636028896677 0.38037345945835116 0.044084338674491103 0.0032631449354033255 0.13087597399950029 0.21008536660152935 0.081419143080711368 -0.001053009448237258 0.11690426227592288 0.0081681621734074929 0.13886752152442933 0.028950304859250355 0.082656177949337731 0.051947470128536226 0.037785980250777271 0.025009462437950648 0.039601598978042607 0.014529320389093995 -0.0024859690865062021 0.026306443939204602 0.067745660192200116 0.05142511120066047 0.0036747059404306916 0.0065459228618042946 0.032824754474624511 0.052799388305062346 0.00084969757297718789
leaf_weight=23849 26 21 193 22 20 22 493 20 23 21 1691 21 222 25 69 21 25 41 39 50 340 4667 85 28 32 221 560 31 21 1079
leaf_count=23849 26 21 193 22 20 22 493 20 23 21 1691 21 222 25 69 21 25 41 39 50 340 4667 85 28 32 221 560 31 21 1079
internal_value=0 -0.000900336 -0.00164831 0.192209 0.292516 0.0385398 -0.00244817 0.144873 0.173244 0.0688917 -0.0029894 0.0818098 0.00786162 0.118353 0.0280096 0.0997802 0.0654019 0.0238893 0.0128597 0.0356959 0.0156078 -0.00330114 0.0300418 0.0550285 0.0590414 -1.7287e-05 0.00500897 0.0402592 0.0435052 -0.000311847
internal_weight=0 33952 33821 131 42 660 33161 89 43 170 31507 88 1654 46 490 42 46 319 601 171 379 28516 126 82 60 2991 1053 102 71 2770
internal_count=33978 33952 33821 131 42 660 33161 89 43 170 31507 88 1654 46 490 42 46 319 601 171 379 28516 126 82 60 2991 1053 102 71 2770
is_linear=0
shrinkage=0.05


Tree=4
num_leaves=31
num_cat=0
split_feature=9 9 9 9 9 9 9 9 9 9 12 2 9 2 6 2 9 9 3 2 9 9 9 6 9 9 2 3 0 6
split_gain=17011.4 2259.25 481.537 433.712 92.631 80.9531 69.7646 14.9084 9.56567 8.84286 6.74231 6.67978 5.90582 5.03981 1.95022 1.88541 1.86099 1.5603 1.30558 1.24811 1.18036 1.10495 1.05646 1.01247 0.953489 0.924464 0.609232 0.57032 0.559809 0.513701
threshold=16.724568162647167 2.4968978413474838 7.3711923032742268 0.45820312621286047 4.4340897475718029 1.3587706010127947 0.056511159035911362 0.82534094567566341 0.20336628682103255 -0.042832015642258824 0.17800125250678678 0.49290395428058525 1.6244056115652934 0.87489974538058979 1.0000000180025095e-35 -0.19291565748856546 0.32430580382054414 0.7130399656046883 0.2622082785115965 0.99133507102398644 -0.068747626427868427 0.9549189996037114 1.0888163219960278 1.0000000180025095e-35 1.0000000180025095e-35 0.09970384367859407 0.14693873039554009 -0.1059639373651642 201224.50000000003 -0.68301270189221952
decision_type=2 2 2 2 2 2 2 2 2 2 2 2 2 2 2 2 2 2 2 2 2 2 2 2 2 2 2 2 2 2
left_child=1 3 4 6 11 7 9 17 25 20 -6 -3 -7 15 21 -14 29 23 19 -16 -1 -9 -20 28 -11 -8 -18 -17 -5 -10
right_child=-2 2 -4 5 10 12 8 14 16 24 -12 -13 13 -15 18 27 26 -19 22 -21 -22 -23 -24 -25 -26 -27 -28 -29 -30 -31
leaf_value=-0.0032832416895329365 1.4227457954770042 0.11321284261442 0.42911994400478548 0.025868172684441443 0.20617776989936829 0.058231932865945912 0.0029873607010111364 0.025473244842141869 0.0068472916204925811 -0.00094156622137513189 0.24723354756832122 0.14530416446573594 0.063565789644295975 0.10193366201027582 0.045395494401454933 0.087262794971466065 0.012348433391889558 0.03017250136472285 0.031661619042808363 0.060222393612970007 -0.002288861474754266 0.039043755133946742 0.047340332397392826 0.024947896460984269 0.00095064628401360103 0.0059451504817359963 0.017675962925037269 0.075322108492255221 0.01720876212542256 0.011300011693165546
leaf_weight=25159 21 31 21 23 20 38 456 20 84 1903 20 34 24 23 40 20 80 80 22 22 3386 60 21 153 1024 628 163 20 99 283
leaf_count=25159 21 31 21 23 20 38 456 20 84 1903 20 34 24 23 40 20 80 80 22 22 3386 60 21 153 1024 628 163 20 99 283
internal_value=0 -0.000776169 0.210553 -0.00156324 0.16684 0.0384173 -0.00236488 0.030024 0.00751944 -0.00289691 0.226706 0.129999 0.0746765 0.0818592 0.0415325 0.074645 0.0125281 0.0240267 0.0460135 0.0506567 -0.00316529 0.0356511 0.0393187 0.0222388 -0.000279583 0.00470091 0.015922 0.0812925 0.0188413 0.0102809
internal_weight=0 33957 126 33831 105 665 33166 540 1694 31472 40 65 125 87 185 64 610 355 105 62 28545 80 43 275 2927 1084 243 40 122 367
internal_count=33978 33957 126 33831 105 665 33166 540 1694 31472 40 65 125 87 185 64 610 355 105 62 28545 80 43 275 2927 1084 243 40 122 367
is_linear=0
shrinkage=0.05


Tree=5
num_leaves=31
num_cat=0
split_feature=1 0 1 4 5 4 11 0 0 4 5 0 12 4 4 4 0 5 0 4 1 8 11 4 5 1 4 0 0 4
split_gain=918.553 7060.21 131.659 143.617 154.651 92.7035 80.1913 106.316 34.7191 49.1635 51.1144 30.2194 30.1123 31.7889 29.3613 25.332 25.0385 20.5129 19.8423 19.8399 14.3723 14.2542 11.7934 10.3067 9.06812 13.4244 8.73657 6.34968 6.23547 12.0068
threshold=1.4663677866533888 201222.50000000003 0.087692167796905474 -0.32583997782234647 0.25000000000000011 -1.0409881451696354 0.14777966027642545 201314.50000000003 201517.50000000003 0.4021238535011547 0.93301270189221952 201232.50000000003 -0.49878212193436272 -0.74065121666887512 -0.62060157763447155 1.705892034909547 201507.50000000003 0.68301270189221941 201312.50000000003 1.2441809386700806 -0.20411586486277286 0.35460488704227539 0.93394587798455209 -0.39404815802293319 -0.24999999999999994 -0.0050990369520890677 0.17621488391208617 201318.50000000003 201613.50000000003 -1.1668262400921303
decision_type=2 2 2 2 2 2 2 2 2 2 2 2 2 2 2 2 2 2 2 2 2 2 2 2 2 2 2 2 2 2
left_child=2 -2 20 4 11 -6 12 -8 9 10 17 -4 -7 -14 -9 21 -15 -3 -12 -10 -1 -11 -19 24 -22 -26 27 -5 29 -27
right_child=1 8 3 26 5 6 7 14 19 15 18 -13 13 16 -16 -17 -18 22 -20 -21 23 -23 -24 -25 25 28 -28 -29 -30 -31
leaf_value=-0.0031491819888589396 0.75529691372888497 0.011811816352693474 0.066770289372652766 0.020705094413632261 0.0093313520369138724 0.015009634809768094 0.19518070693151898 0.11251309281769431 0.007662834532623646 0.015020420745243436 0.13351073974876532 0.0030154580087489503 0.12006824333828106 0.083036193477276421 0.028902173463609959 0.0644158550688336 0.012214362803206313 0.029409455662179035 0.068164762055787906 0.048717835577554075 -0.00073599610405321357 0.056481925817206506 0.072174759026567795 -0.0019100212945699368 0.0031961560276424351 0.0041092136167348008 0.0020413744185441714 0.0064728835819845357 0.0057336337610673256 0.047343269651312206
leaf_weight=19986 34 51 20 105 62 35 29 21 366 359 21 263 23 26 21 31 24 28 26 32 1842 22 38 6995 1212 26 1835 309 39 42
leaf_count=19986 34 51 20 105 62 35 29 21 366 359 21 263 23 26 21 31 24 28 26 32 1842 22 38 6995 1212 26 1835 309 39 42
internal_value=0 0.0470437 -0.00141173 0.00901408 0.0325877 0.0620228 0.0802735 0.121549 0.0223202 0.0301673 0.0533202 0.0075211 0.0531388 0.0714199 0.0707076 0.020951 0.0490417 0.0356283 0.0973619 0.0109637 -0.00237089 0.0174145 0.0540319 -0.000839277 0.00153018 0.00469493 0.0035216 0.0100825 0.0216717 0.0308126
internal_weight=0 1008 32915 2773 524 241 179 71 974 576 164 283 108 73 42 412 50 117 47 398 30142 381 66 10156 3161 1319 2249 414 107 68
internal_count=33923 1008 32915 2773 524 241 179 71 974 576 164 283 108 73 42 412 50 117 47 398 30142 381 66 10156 3161 1319 2249 414 107 68
is_linear=0
shrinkage=0.05


Tree=6
num_leaves=31
num_cat=0
split_feature=9 9 9 9 9 7 9 9 9 2 9 9 9 10 0 8 11 7 9 9 2 2 2 9 9 0 12 0 1 12
split_gain=16159 1416.77 333.521 277.253 60.3572 54.1221 51.1571 11.6621 9.77626 9.59412 6.61963 5.28737 4.88299 2.74146 3.22521 1.80675 1.70301 2.67225 1.3985 1.08895 1.03923 0.948743 0.788387 0.783214 0.77124 0.613699 0.558454 0.553679 0.538899 1.15761
threshold=13.079105578804745 2.2161453911700462 0.48843800546273836 4.8055468354988742 0.091065306750057515 0.74851074817261043 1.2356714497811492 0.76487118717590763 -0.025554941785185754 0.26941798632484082 1.5099449972621841 0.31566726689200758 2.708541996096629 1.9830067188370195 201312.50000000003 -0.23931566428722484 0.76130453115910479 -9.6992769269234252e-13 -0.068747626427868427 0.17313140757115467 0.038722262413420444 -0.40628902925323418 0.40126985884637995 0.017637742857496936 0.6244949620871888 201523.50000000003 1.059927648082869 201222.50000000003 1.4663677866533888 0.64529174637909281
decision_type=2 2 2 2 2 2 2 2 2 2 2 2 2 2 2 2 2 2 2 2 2 2 2 2 2 2 2 2 2 2
left_child=1 2 4 9 8 -5 7 20 18 -3 26 19 -11 14 -12 28 -17 -18 -1 -6 24 -13 27 -10 25 -4 -8 -21 -9 -30
right_child=-2 3 6 5 11 -7 10 15 23 12 13 21 -14 -15 -16 16 17 -19 -20 22 -22 -23 -24 -25 -26 -27 -28 -29 29 -31
leaf_value=-0.0029841899637191539 1.3248740061469702 0.094391307862181417 0.0089015030594808715 0.21611296093982199 0.0048991320119779747 0.32713526600883125 0.044318393524736169 0.036207452198354216 -0.00028712264919381471 0.11242597234391033 0.092677946743511028 0.0082836887035824241 0.14694672822952271 0.057464847348343874 0.068262013008720007 0.035226601019501688 0.035928339705519056 0.059325112402439123 -0.0020182842962887422 -0.0014950928710667152 0.023095558710783892 0.015238568088645116 0.010258404754627849 0.0015648094647157898 0.022787115402752536 0.019158476576209071 0.054811815917491916 0.0069513502512492387 0.021452296718403145 0.036717096942922349
leaf_weight=25103 23 38 35 23 544 21 32 41 1284 21 21 61 20 26 38 50 23 26 4405 21 173 250 233 1028 32 25 21 255 27 23
leaf_count=25103 23 38 35 23 544 21 32 41 1284 21 21 61 20 26 38 50 23 26 4405 21 173 250 233 1028 32 25 21 255 27 23
internal_value=0 -0.000872181 -0.00148901 0.168514 -0.00215318 0.269101 0.0356781 0.0275903 -0.00259468 0.112491 0.0623443 0.00814625 0.129265 0.0709915 0.0769524 0.0370439 0.0417185 0.048343 -0.00284 0.00645445 0.0208122 0.0138744 0.00811671 0.000536314 0.0165185 0.0131752 0.0484762 0.00630869 0.0319584 0.0284741
internal_weight=0 33900 33777 123 33184 44 593 455 31820 79 138 1364 41 85 59 190 99 49 29508 1053 265 311 509 2312 92 60 53 276 91 50
internal_count=33923 33900 33777 123 33184 44 593 455 31820 79 138 1364 41 85 59 190 99 49 29508 1053 265 311 509 2312 92 60 53 276 91 50
is_linear=0
shrinkage=0.05


Tree=7
num_leaves=31
num_cat=0
split_feature=9 9 9 9 9 9 9 9 2 9 9 9 9 6 9 2 1 7 6 12 6 1 9 9 4 9 1 2 9 7
split_gain=14583.5 1278.93 333.618 238.958 50.829 43.6839 35.0544 17.8453 7.67713 6.91296 5.39958 4.01654 3.9183 3.35207 3.25281 1.89203 1.88784 1.96718 1.40662 1.32951 1.04554 1.02032 0.743974 0.641362 0.604967 0.515329 0.485495 0.48505 0.472791 0.468922
threshold=13.079105578804745 1.7583029339576097 4.8055468354988742 0.33726360921334891 6.9738196045615455 0.82534094567566341 0.047872622107374828 3.2246945775766869 0.87489974538058979 1.5099449972621841 -0.047151284106527101 0.6244949620871888 2.0844077030098642 -0.24999999999999994 0.14721579678554506 0.12446551846323363 2.9206108956400691 0.8229838658938099 1.0000000180025095e-35 0.56221855677062615 0.25000000000000017 2.0188801456548724 -0.012597136392380951 0.49275727392700658 0.16616645948550088 -0.077386163356404983 1.4663677866533888 -0.29957429805479902 1.0888163219960278 0.88545602565225212
decision_type=2 2 2 2 2 2 2 2 2 2 2 2 2 2 2 2 2 2 2 2 2 2 2 2 2 2 2 2 2 2
left_child=1 3 7 6 -4 11 10 8 12 13 25 18 -3 26 -8 -14 17 19 -5 -15 -16 23 -12 29 -11 -1 27 -7 -18 -20
right_child=-2 2 4 5 -6 9 14 -9 -10 24 22 -13 15 16 20 -17 28 -19 21 -21 -22 -23 -24 -25 -26 -27 -28 -29 -30 -31
leaf_value=-0.0028755850615415027 1.2586303519166036 0.060819067189899781 0.20429528666579208 0.011715493247196167 0.3118869185447693 0.029015278932638468 0.0030265533998921237 0.12853471716245016 0.11068511690412249 0.067411307068098156 -0.0012238317267500637 0.024934618627573825 0.074239946830840342 0.037349623373963615 0.0060575499766126265 0.094790576832989859 0.030217401087284091 0.060890848437945046 0.015216783893161587 0.053009513247272246 0.010030964470228576 0.013208210113090139 0.00032774718373867687 0.023839640460209921 0.055409651923747298 -0.0023578327692152573 0.026313441550980012 0.038624683176649029 0.040959077789669951 0.022872847345258511
leaf_weight=21940 23 26 23 171 21 24 916 30 21 21 1913 142 21 33 444 24 20 24 70 23 264 86 1296 64 21 6154 30 29 21 28
leaf_count=21940 23 26 23 171 21 24 916 30 21 21 1913 142 21 33 444 24 20 24 70 23 264 86 1296 64 21 6154 30 29 21 28
internal_value=0 -0.000828572 0.137615 -0.00150983 0.255646 0.0253706 -0.00216864 0.095047 0.0841271 0.042938 -0.00254023 0.0176672 0.076272 0.0391349 0.00499387 0.0852003 0.0444432 0.0489142 0.0152043 0.0437814 0.00753916 0.0176099 -0.000597205 0.0199466 0.0614105 -0.00276217 0.0313962 0.0342733 0.0357192 0.0174042
internal_weight=0 33900 166 33734 44 807 32927 122 92 246 31303 561 71 204 1624 45 121 80 419 56 708 248 3209 162 42 28094 83 53 41 98
internal_count=33923 33900 166 33734 44 807 32927 122 92 246 31303 561 71 204 1624 45 121 80 419 56 708 248 3209 162 42 28094 83 53 41 98
is_linear=0
shrinkage=0.05


Tree=8
num_leaves=31
num_cat=0
split_feature=10 9 9 9 9 9 9 9 9 9 6 11 6 9 6 10 6 4 0 0 8 9 0 9 9 0 9 0 9 0
split_gain=13236.8 1286.83 305.284 256.816 66.8644 49.0852 38.7162 8.77401 7.75476 6.31197 5.78009 2.99266 2.57164 1.44552 1.26947 1.19614 1.15361 1.09137 0.922817 0.883613 0.830707 0.775246 1.40629 0.766181 0.73135 0.57451 0.558493 0.542415 0.404833 0.395374
threshold=16.467823916956586 2.4968978413474838 0.6244949620871888 6.9738196045615455 0.10402311214286232 4.8055468354988742 1.5099449972621841 -0.025554941785185754 0.33726360921334891 0.99379241578212574 1.0000000180025095e-35 1.0016758106658081 1.0000000180025095e-35 0.76487118717590763 1.0000000180025095e-35 -0.064675617080672251 0.25000000000000017 0.70000866754993829 201527.50000000003 201549.50000000003 0.46472317204341668 2.0412150183671813 201513.50000000003 0.026276279786033474 0.48843800546273836 201314.50000000003 0.17313140757115467 201310.50000000003 0.24655897146371525 201605.50000000003
decision_type=2 2 2 2 2 2 2 2 2 2 2 2 2 2 2 2 2 2 2 2 2 2 2 2 2 2 2 2 2 2
left_child=1 2 4 5 7 10 9 15 16 13 -3 21 18 27 -10 -1 28 19 -11 -14 25 22 -8 -9 -16 -15 -18 -4 -6 -28
right_child=-2 3 6 -5 8 -7 11 23 14 12 -12 -13 17 20 24 -17 26 -19 -20 -21 -22 -23 -24 -25 -26 -27 29 -29 -30 -31
leaf_value=-0.0026832899015932022 1.2549488794235957 0.092197983634882963 0.027309911991610671 0.3204039083874744 0.0043854200614595459 0.19408051838045537 0.064307216820972304 -0.000153414811523556 0.011129718686624879 0.026852801009355221 0.12301766248419882 0.078703656617332918 0.055896994918584825 0.031749170252255036 0.014571568063815663 -0.0017170596896374712 0.0062534054317145878 0.03799503509093214 0.039820467518723535 0.042329161204397683 0.036375056217248375 0.068592327194554478 0.046947838589549068 0.0016668806812849353 0.020146004316241792 0.022813028224265657 0.011710486839021468 0.019534049064054024 0.007315716229364156 0.0071175291810346682
leaf_weight=25852 21 29 33 23 492 23 28 1444 171 34 32 34 30 35 152 3656 149 27 23 20 37 21 20 964 96 37 146 70 155 69
leaf_count=25852 21 29 33 23 492 23 28 1444 171 34 32 34 30 35 152 3656 149 27 23 20 37 21 20 964 96 37 146 70 155 69
internal_value=0 -0.00075326 -0.00130139 0.172369 -0.00185283 0.131835 0.0396524 -0.00232675 0.00872464 0.0316417 0.108366 0.0665623 0.040136 0.0262726 0.0144441 -0.00256358 0.00635426 0.0460956 0.0320854 0.0504699 0.0302861 0.0605797 0.0570741 0.000575308 0.0167294 0.027157 0.00860604 0.0220253 0.00508742 0.0102365
internal_weight=0 33902 33795 107 33346 84 449 31916 1430 346 61 103 134 212 419 29508 1011 77 57 50 109 69 48 2408 248 72 364 103 647 215
internal_count=33923 33902 33795 107 33346 84 449 31916 1430 346 61 103 134 212 419 29508 1011 77 57 50 109 69 48 2408 248 72 364 103 647 215
is_linear=0
shrinkage=0.05


Tree=9
num_leaves=31
num_cat=0
split_feature=9 9 9 9 7 9 9 9 2 9 9 9 9 9 0 11 8 10 8 2 2 9 0 9 5 5 1 10 5 1
split_gain=11986.6 1031.56 261.195 194.304 52.0359 35.4291 28.6224 15.1042 6.68833 5.50031 4.43816 3.25336 3.10318 2.66145 2.21173 2.04781 1.95315 1.71639 1.26262 1.02223 0.960898 0.736541 0.657352 0.592993 0.587292 0.545323 0.512691 0.490081 0.484444 0.437951
threshold=13.079105578804745 1.7583029339576097 4.8055468354988742 0.33726360921334891 0.74851074817129637 0.82534094567566341 0.047872622107374828 3.2246945775766869 0.87489974538058979 1.3414935271557218 -0.047151284106527101 0.6244949620871888 2.0844077030098642 0.13425799139274022 201505.50000000003 0.65435452515074244 -0.23931566428722484 1.3162692669944835 0.78574730703275175 0.029583949777842615 0.40126985884637995 0.45820312621286047 201509.50000000003 -0.012597136392380951 0.93301270189221952 0.25000000000000011 0.95217789503467298 -0.064675617080672251 0.25000000000000011 1.727731247010921
decision_type=2 2 2 2 2 2 2 2 2 2 2 2 2 2 2 2 2 2 2 2 2 2 2 2 2 2 2 2 2 2
left_child=1 3 7 6 -4 11 10 8 12 15 27 19 -3 -8 -14 24 -17 -11 -18 22 -15 -21 26 -12 25 -7 -5 -1 -22 -23
right_child=-2 2 4 5 -6 9 13 -9 -10 17 23 -13 14 20 -16 16 18 -19 -20 21 28 29 -24 -25 -26 -27 -28 -29 -30 -31
leaf_value=-0.0025593526091659642 1.1410778573025828 0.054788808409984291 0.17364654811945829 0.0095183802484017296 0.28239548964933919 0.033953946112440181 0.0025834214372512446 0.11672758956750234 0.10066136930670058 0.060140789087329595 -0.0010908419213648882 0.022479111976383755 0.065645127678694945 0.005022913820328264 0.087820279259573336 0.030336382157272763 0.056646209657192227 0.04415906745763052 0.039092311848487174 0.013047590797456602 0.013016461716772308 0.020061223986712132 0.013132598387027109 0.00029438073284471098 0.037206772040753143 0.025306161965976365 -0.00046609907411038882 -0.0018249718404265839 0.0077901606693346771 0.013888696900435857
leaf_weight=25601 23 26 22 36 22 26 850 30 21 28 1913 142 23 421 22 27 20 42 21 156 52 91 74 1296 21 61 20 2493 301 42
leaf_count=25601 23 26 22 36 22 26 850 30 21 28 1913 142 23 421 22 27 20 42 21 156 52 91 74 1296 21 61 20 2493 301 42
internal_value=0 -0.00075129 0.123585 -0.00136313 0.228021 0.022876 -0.0019572 0.0859189 0.0758726 0.0386967 -0.00229297 0.0159385 0.0685407 0.00451493 0.0764863 0.0339816 0.0407786 0.0505518 0.0476552 0.0137219 0.0066361 0.0153783 0.0100396 -0.0005314 0.029702 0.0278906 0.00595249 -0.00249419 0.00856004 0.018112
internal_weight=0 33900 166 33734 44 807 32927 122 92 246 31303 561 71 1624 45 176 68 70 41 419 774 289 130 3209 108 87 56 28094 353 133
internal_count=33923 33900 166 33734 44 807 32927 122 92 246 31303 561 71 1624 45 176 68 70 41 419 774 289 130 3209 108 87 56 28094 353 133
is_linear=0
shrinkage=0.05


Tree=10
num_leaves=31
num_cat=0
split_feature=9 9 9 9 9 9 9 9 2 9 9 2 9 2 9 2 2 2 5 3 9 1 9 2 9 1 7 4 1 8
split_gain=8603.53 1009.34 209.35 199.311 37.9217 37.6887 33.3021 13.8574 14.1203 6.69949 6.36515 4.37445 3.04268 2.82013 2.75691 1.32844 1.32075 0.911311 0.890789 0.831763 0.811498 0.730632 0.722844 0.671785 0.6534 0.608878 0.632446 0.552284 0.542524 0.488794
threshold=13.079105578804745 2.2161453911700462 0.47548020006993358 5.3281783196753354 0.095384575214325792 6.9738196045615455 1.0456236373533452 3.2246945775766869 0.054894163610991108 1.5250624368871233 -0.034193478713722289 0.63964878504037248 0.76487118717590763 0.5196482852329154 0.24655897146371525 0.54990388062574624 -0.3869374067693313 -0.72733251099383034 1.0000000180025095e-35 0.58470913323096829 0.3674984884632268 1.4663677866533888 -0.068747626427868427 0.92471341719841904 0.017637742857496936 1.4663677866533888 0.56806474673159402 0.72527295697421945 1.727731247010921 -0.74851074816962071
decision_type=2 2 2 2 2 2 2 2 2 2 2 2 2 2 2 2 2 2 2 2 2 2 2 2 2 2 2 2 2 2
left_child=1 2 4 7 10 -5 12 11 -9 16 22 -3 15 -11 -6 19 -8 29 -14 25 -19 -20 -1 -18 -12 -4 -27 28 -17 -16
right_child=-2 3 6 5 14 -7 9 8 -10 13 24 -13 18 -15 17 27 23 20 21 -21 -22 -23 -24 -25 -26 26 -28 -29 -30 -31
leaf_value=-0.0024361948466934706 0.98840029842474242 0.067092201113700872 0.014544101571974655 0.17577093660831453 0.0048714099963166101 0.27060707888819951 0.026781045505777003 0.087926590726489118 0.1466294452548027 0.048032264908154806 -0.00042172458556882103 0.096561796069145209 0.034306414039046683 0.067733528202070917 -0.0012786494921892882 0.021235864105470043 0.038079728303211074 0.0087198043183965672 0.028100424959209933 0.019811214915598216 0.013316002717351554 0.019945114896685448 -0.0017088093485344799 0.048276136460758394 0.0011699434868824654 0.00060299744829535491 0.013026643145297254 0.026412474966662769 0.012491801567375661 0.0075917500678858753
leaf_weight=25160 22 34 75 20 836 22 22 21 20 39 1681 20 27 34 25 68 70 238 57 46 161 53 3952 21 1046 20 21 34 24 41
leaf_count=25160 22 34 75 20 836 22 22 21 20 39 1681 20 27 34 25 68 70 238 57 46 161 53 3952 21 1046 20 21 34 24 41
internal_value=0 -0.000694712 -0.00124448 0.134746 -0.00177918 0.225447 0.0277569 0.0946465 0.116562 0.0454019 -0.00212108 0.0780069 0.0200346 0.0572082 0.006588 0.0171167 0.0377749 0.00967416 0.0261685 0.0141219 0.0105744 0.024171 -0.00233745 0.0404327 0.000188794 0.0118658 0.00696633 0.0209672 0.0189548 0.00423175
internal_weight=0 33888 33751 137 33140 42 611 95 41 186 31839 54 425 73 1301 288 113 465 137 162 399 110 29112 91 2727 116 41 126 92 66
internal_count=33910 33888 33751 137 33140 42 611 95 41 186 31839 54 425 73 1301 288 113 465 137 162 399 110 29112 91 2727 116 41 126 92 66
is_linear=0
shrinkage=0.05


Tree=11
num_leaves=31
num_cat=0
split_feature=9 9 9 9 8 9 9 9 6 9 9 10 10 9 9 6 9 8 1 5 12 0 6 10 1 12 9 1 9 0
split_gain=7764.69 910.93 188.938 179.878 37.105 34.2244 30.0551 12.5063 6.06055 6.04629 5.74455 4.09778 3.3509 2.74602 2.48811 1.68501 1.2163 0.893795 1.09576 0.803937 0.755558 0.748998 0.730292 0.677581 0.659396 0.618685 0.589694 0.549513 0.54228 0.540577
threshold=13.079105578804745 2.2161453911700462 0.47548020006993358 5.3281783196753354 -0.56806474672992435 0.095384575214325792 1.0456236373533452 3.2246945775766869 1.0000000180025095e-35 1.5250624368871233 -0.034193478713722289 2.7058450565951087 1.6485591297250679 0.76487118717590763 0.24655897146371525 1.0000000180025095e-35 1.89435989058206 -0.88545602565367221 1.4663677866533888 1.0000000180025095e-35 0.95404051039444948 201527.50000000003 1.0000000180025095e-35 -0.064675617080672251 1.4663677866533888 0.91452675231997194 0.017637742857496936 2.0188801456548724 1.166563154352857 201312.50000000003
decision_type=2 2 2 2 2 2 2 2 2 2 2 2 2 2 2 2 2 2 2 2 2 2 2 2 2 2 2 2 2 2
left_child=1 2 5 7 -5 10 13 11 -9 15 23 -3 -11 17 -7 21 -14 18 -4 -15 -19 -8 -16 -1 -21 -26 -12 -24 -17 -22
right_child=-2 3 6 4 -6 14 9 8 -10 12 26 -13 16 19 22 28 -18 20 -20 24 29 -23 27 -25 25 -27 -28 -29 -30 -31
leaf_value=-0.0023059272210476482 0.93898029300299568 0.085970505062610877 0.016737485660480396 0.16717857477210818 0.26117074659892492 0.0046278395233518487 0.022346588658789794 0.091035719215869906 0.12949431453432356 0.06833034003222431 -0.00040063835020649882 0.058115936329831253 0.036870562732219697 0.032591093262588543 0.007135148498400668 0.034173188482721648 0.053271459673459712 0.015456403143282324 0.002506878840116163 0.026695403374992967 0.026912173037898952 0.035276674869514649 0.012879196951999482 -0.0015388169969201221 0.014396960183136888 0.02536048922179775 0.0011114463136900267 0.0078954921948701847 0.043837648313096229 0.018501800288712341
leaf_weight=25873 22 31 31 21 21 836 24 20 21 27 1681 23 20 27 224 21 26 148 24 57 29 21 155 3239 31 22 1046 86 47 56
leaf_count=25873 22 31 31 21 21 836 24 20 21 27 1681 23 20 27 224 21 26 148 24 57 29 21 155 3239 31 22 1046 86 47 56
internal_value=0 -0.000659976 -0.00118226 0.128009 0.214175 -0.00169022 0.026369 0.0899142 0.110734 0.0431318 -0.00201503 0.0741065 0.0543478 0.0190329 0.0062586 0.0358861 0.0461406 0.0162609 0.0105278 0.0248601 0.0176142 0.0283806 0.00919045 -0.00222058 0.0229625 0.0189479 0.000179355 0.0111008 0.040853 0.0213712
internal_weight=0 33888 33751 137 42 33140 611 95 41 186 31839 54 73 425 1301 113 46 288 55 137 233 45 465 29112 110 53 2727 241 68 85
internal_count=33910 33888 33751 137 42 33140 611 95 41 186 31839 54 73 425 1301 113 46 288 55 137 233 45 465 29112 110 53 2727 241 68 85
is_linear=0
shrinkage=0.05


Tree=12
num_leaves=31
num_cat=0
split_feature=9 9 9 9 9 9 9 9 11 9 7 9 9 6 6 8 1 11 5 12 0 1 9 1 4 0 12 0 9 7
split_gain=7007.63 822.114 170.517 162.617 44.5091 30.8916 27.1247 5.45677 5.12443 5.05925 4.95534 2.47829 2.34567 1.67362 1.52073 0.80665 0.988927 0.770259 0.725553 0.699957 0.675971 0.635443 0.61733 0.595105 0.589299 1.57341 0.558363 0.543495 0.510956 0.489676
threshold=13.079105578804745 2.2161453911700462 0.47548020006993358 6.9738196045615455 4.4340897475718029 0.091065306750057515 1.0456236373533452 1.5250624368871233 0.50800188534982571 -0.034193478713722289 0.7485107481707054 0.76487118717590763 0.24655897146371525 1.0000000180025095e-35 1.0000000180025095e-35 -0.88545602565367221 1.4663677866533888 -0.22382216714324138 1.0000000180025095e-35 0.49079568998165485 201527.50000000003 1.727731247010921 -0.060109089499331907 1.4663677866533888 0.70000866754993829 201549.50000000003 0.91452675231997194 201312.50000000003 0.0089992059289603962 0.97094181742616426
decision_type=2 2 2 2 2 2 2 2 2 2 2 2 2 2 2 2 2 2 2 2 2 2 2 2 2 2 2 2 2 2
left_child=1 2 5 4 8 9 11 14 -3 22 -10 15 29 -9 20 16 -4 -14 -13 -17 -8 -19 -1 -20 25 -16 -25 -21 -11 -7
right_child=-2 3 6 -5 -6 12 7 13 10 28 -12 18 17 -15 24 19 -18 21 23 27 -22 -23 -24 26 -26 -27 -28 -29 -30 -31
leaf_value=-0.0021780465548632646 0.89203128543767063 0.064924223338946319 0.015900611257060403 0.24615437415513128 0.14681576508464236 0.0039229559130928389 0.021229258955766758 0.043741885593959265 0.0741247120110885 -0.00047159174246545835 0.10815470980480313 0.030961538740882168 0.0060125407122889772 0.05889613032341004 0.050500443220138552 0.013884993514303851 0.002381534781306982 0.011882838083199464 0.025360633555407588 0.023883294605184346 0.033512841604117841 0.0069808482337093943 -0.0013355960982698815 0.013677112129516901 0.032299712527057399 0.031685081114992499 0.024092465131120247 0.016881993274467114 0.00091027661968382748 0.0078590560498097064
leaf_weight=26745 22 39 31 22 33 774 24 35 23 1481 20 27 167 38 25 112 24 199 57 43 21 99 2367 31 23 20 22 78 1220 88
leaf_count=26745 22 39 31 22 33 774 24 35 23 1481 20 27 167 38 25 112 24 199 57 43 21 99 2367 31 23 20 22 78 1220 88
internal_value=0 -0.000626978 -0.00112315 0.121608 0.097782 -0.00160571 0.0250506 0.0409753 0.0780489 -0.00191749 0.0899526 0.0180812 0.00586876 0.0516304 0.0340918 0.0154478 0.0100014 0.00873093 0.0236171 0.0167335 0.0269616 0.0102543 -0.00210955 0.0218144 0.0388104 0.0421381 0.0180005 0.0193701 0.000152577 0.00432479
internal_weight=0 33888 33751 137 115 33140 611 186 82 31813 43 425 1327 73 113 288 55 465 137 233 45 298 29112 110 68 45 53 121 2701 862
internal_count=33910 33888 33751 137 115 33140 611 186 82 31813 43 425 1327 73 113 288 55 465 137 233 45 298 29112 110 68 45 53 121 2701 862
is_linear=0
shrinkage=0.05


Tree=13
num_leaves=31
num_cat=0
split_feature=9 9 9 9 8 9 9 9 2 9 9 2 10 9 9 2 6 9 0 6 2 0 5 10 4 0 0 9 9 12
split_gain=6324.39 741.958 154.149 147.383 33.1334 32.7831 19.3497 10.579 11.8196 4.92474 4.1602 3.69394 2.93609 2.66549 2.30455 1.43842 1.37245 1.09402 0.979551 0.899551 0.670455 0.610064 0.595804 0.579951 0.531842 1.42001 0.515349 0.465152 0.454824 0.347833
threshold=13.079105578804745 2.2161453911700462 0.36317921999895858 5.3281783196753354 -0.56806474672992435 1.0456236373533452 0.039234085178838286 3.2246945775766869 0.054894163610991108 1.5250624368871233 0.6244949620871888 0.63964878504037248 1.6485591297250679 -0.055789821035063636 0.11266164907139888 0.054894163610991108 1.0000000180025095e-35 1.89435989058206 201302.50000000003 -0.24999999999999994 0.020444042450282484 201527.50000000003 0.25000000000000011 0.81567674651723954 0.70000866754993829 201549.50000000003 201308.50000000003 -0.021235673320917487 0.21200482374956908 0.099886294281029533
decision_type=2 2 2 2 2 2 2 2 2 2 2 2 2 2 2 2 2 2 2 2 2 2 2 2 2 2 2 2 2 2
left_child=1 2 6 7 -5 10 13 11 -9 16 15 -3 -11 -1 -8 18 21 -14 -4 23 -16 -7 -21 -12 25 -18 -24 -15 -22 -17
right_child=-2 3 5 4 -6 9 14 8 -10 12 19 -13 17 27 20 29 24 -19 -20 22 28 -23 26 -25 -26 -27 -28 -29 -30 -31
leaf_value=-0.0020595699644642795 0.84742969328706919 0.056477008754497064 -0.00063080654945224524 0.14911365127634435 0.23793317647207354 0.020167796018843852 0.0015088477114839863 0.073995015450886312 0.12770299151539805 0.06213739757184629 0.012806906342031618 0.083557534515857707 0.032574740275740623 -0.0010898030146674312 0.0034294549817650861 0.011557075947517703 0.047975421309471133 0.048129364561576113 0.0098157933849651532 0.029277633436556372 0.0048903181731941182 0.031837199260258957 0.028168738030252008 0.020347324904857897 0.030684726752097841 0.030100826695561411 0.019470095386625166 3.5125976426574245e-05 0.0076392784751183277 0.01552672142634628
leaf_weight=27276 22 34 28 21 21 24 801 21 20 27 51 20 20 2416 361 86 25 26 113 28 328 21 21 51 23 20 90 1483 278 154
leaf_count=27276 22 34 28 21 21 24 801 21 20 27 51 20 20 2416 361 86 25 26 113 28 328 21 21 51 23 20 90 1483 278 154
internal_value=0 -0.000595629 -0.00106699 0.115528 0.193523 0.0205091 -0.00159619 0.0810455 0.100194 0.0389265 0.0150017 0.0665068 0.0490489 -0.00188477 0.00349229 0.0117495 0.0323872 0.0413665 0.00774129 0.0201431 0.00513524 0.0256135 0.0227599 0.0165771 0.0368699 0.0400312 0.0211158 -0.000661932 0.00615139 0.0141043
internal_weight=0 33888 33751 137 42 808 32943 95 41 186 622 54 73 31175 1768 381 113 46 141 241 967 45 139 102 68 45 111 3899 606 240
internal_count=33910 33888 33751 137 42 808 32943 95 41 186 622 54 73 31175 1768 381 113 46 141 241 967 45 139 102 68 45 111 3899 606 240
is_linear=0
shrinkage=0.05


Tree=14
num_leaves=31
num_cat=0
split_feature=9 9 9 9 9 9 9 10 9 9 2 9 6 1 9 1 9 2 2 11 10 3 6 9 9 1 10 10 1 4
split_gain=5707.76 669.618 156.756 119.772 29.255 28.0178 25.1374 9.03259 5.41766 4.22287 2.74472 1.86581 1.40574 1.40151 1.11672 1.06274 1.01532 1.00149 0.791169 0.78583 0.703774 0.698844 0.613813 0.550322 0.528514 0.473124 0.642192 0.469484 0.449672 0.424209
threshold=13.079105578804745 2.4968978413474838 0.47548020006993358 6.9738196045615455 1.3587706010127947 4.4340897475718029 0.095384575214325792 2.7058450565951087 0.76487118717590763 -0.025554941785185754 0.82377416418606531 0.33726360921334891 -0.24999999999999994 3.7185376184109042 1.1276897381744424 1.4663677866533888 1.8317304978501703 0.54990388062574624 -0.72733251099383034 0.56255703777457489 -0.064675617080672251 0.58470913323096829 -0.68301270189221952 0.19904701835676428 0.99379241578212574 1.4663677866533888 0.62363909857553812 1.4629946609274687 1.727731247010921 0.72527295697421945
decision_type=2 2 2 2 2 2 2 2 2 2 2 2 2 2 2 2 2 2 2 2 2 2 2 2 2 2 2 2 2 2
left_child=1 2 6 5 8 7 9 -3 17 20 16 22 15 14 19 24 27 21 -13 -14 -1 25 -8 -24 -10 -4 -27 -6 -20 -19
right_child=-2 3 4 -5 10 -7 11 -9 12 -11 -12 18 13 -15 -16 -17 -18 29 28 -21 -22 -23 23 -25 -26 26 -28 -29 -30 -31
leaf_value=-0.0019800174706290285 0.80505823858759629 0.098703170754015454 0.011652907270938158 0.22396862168203702 0.041253260132812324 0.13171809769489548 0.0022997633076553047 0.059522245843943805 0.018435571315265926 0.00033131025007651481 0.05724991241822372 0.0020124067086726427 0.02121076348027395 0.019255233523310038 0.038523332942878047 0.011784256882965565 0.046893280421040566 0.015539836456477846 0.01203039960831508 0.032071009045466781 -0.0012345058355148781 0.016574930207317939 0.0040420828034535656 0.0066931733197174229 0.02798709140469631 -0.0011337311140128545 0.011385271074250341 0.031016285779575509 0.0070409668483383328 0.022075833484311316
leaf_weight=25924 22 24 75 22 21 33 251 38 28 2309 37 32 31 37 31 30 38 92 143 36 3606 46 477 332 30 21 20 24 66 34
leaf_count=25924 22 24 75 22 21 33 251 38 28 2309 37 32 31 37 31 30 38 92 143 36 3606 46 477 332 30 21 20 24 66 34
internal_value=0 -0.000565847 -0.000979543 0.118844 0.0237077 0.0944991 -0.0014496 0.0746891 0.0184905 -0.00172796 0.0459242 0.00536272 0.0243412 0.0275463 0.0306767 0.0194243 0.0408753 0.0139603 0.00933381 0.0270461 -0.00188898 0.01136 0.00445986 0.00513005 0.023376 0.00929194 0.0049731 0.0357935 0.0104548 0.0173035
internal_weight=0 33888 33771 117 631 95 33140 62 511 31839 120 1301 223 135 98 88 83 288 241 67 29530 162 1060 809 58 116 41 45 209 126
internal_count=33910 33888 33771 117 631 95 33140 62 511 31839 120 1301 223 135 98 88 83 288 241 67 29530 162 1060 809 58 116 41 45 209 126
is_linear=0
shrinkage=0.05


Tree=15
num_leaves=31
num_cat=0
split_feature=1 4 1 4 5 4 11 3 7 8 4 5 3 4 4 12 1 1 4 3 4 8 1 2 4 11 5 1 4 1
split_gain=387.319 3609.17 42.2355 39.1621 55.5716 32.8038 37.8885 18.2721 18.1452 31.3323 17.9723 29.3439 20.2588 13.4768 11.2776 10.7046 8.37666 6.85391 6.11615 5.11611 5.02879 4.25407 4.21806 2.74068 2.68951 2.52661 2.33878 2.36745 1.97492 2.45194
threshold=1.4663677866533888 -0.82912368576613826 0.022399398118039281 -0.32583997782234647 0.25000000000000011 -0.99971377105891268 0.91495958957794676 0.14140854752001078 0.56806474673159402 -0.12053668025298804 0.4021238535011547 0.93301270189221952 0.58470913323096829 1.3049874404867092 -0.66821812081355703 1.059927648082869 3.7185376184109042 2.3815099988872306 -0.57226194332246239 -1.3375311423943403 0.079648548659268154 0.7485107481710217 -0.20614227443443189 -0.032728135704937954 -0.46465312299161271 -0.51527995023117945 -0.24999999999999994 -0.0050990369520890677 0.18462136166577889 0.25098568106930774
decision_type=2 2 2 2 2 2 2 2 2 2 2 2 2 2 2 2 2 2 2 2 2 2 2 2 2 2 2 2 2 2
left_child=2 -2 22 4 25 23 7 8 18 -10 11 15 20 19 -8 -3 -15 -17 -7 -12 -13 -9 -1 -6 26 -4 -24 -28 29 -5
right_child=1 10 3 28 5 6 14 21 9 -11 13 12 -14 16 -16 17 -18 -19 -20 -21 -22 -23 24 -25 -26 -27 27 -29 -30 -31
leaf_value=-0.001908793818831657 0.55320797417480205 0.0073539709838267081 -0.0017082183192605558 0.001052708124763349 0.023219061926938594 0.039347664711319591 0.051114931128298249 0.0012283874694257976 0.11007066381917824 0.022625929536297919 0.027965917708934286 0.058000368116931482 0.016910231293877587 0.015338065102980358 0.093174800400361968 0.013071679660961741 0.050106255002319813 0.050859207031317057 0.0016232797632082588 0.0061089137464586636 0.092642151601612571 0.027612477366346866 -0.0005014113200333246 0.0025508942616453835 -0.0011819683162888357 0.0073951452864301319 0.0020253790380391165 0.016495830406723866 0.0010825854256569065 0.0077119912965443807
leaf_weight=19739 32 134 230 273 20 22 30 50 21 20 28 22 24 41 34 21 30 28 21 611 20 22 1791 81 6847 114 1116 29 2204 280
leaf_count=19739 32 134 230 273 20 22 30 50 21 20 28 22 24 41 34 21 30 28 21 611 20 22 1791 81 6847 114 1116 29 2204 280
internal_value=0 0.0308466 -0.000878521 0.00437988 0.015271 0.0302337 0.0410638 0.0277733 0.043616 0.0674147 0.0134164 0.0249747 0.053556 0.00936287 0.0734592 0.0146666 0.0300288 0.0346646 0.0209241 0.00706665 0.0744965 0.00929019 -0.00148804 0.0066436 -0.000639095 0.00130859 0.000626933 0.00239188 0.00175291 0.0044245
internal_weight=0 991 32944 3422 665 321 220 156 84 41 959 249 66 710 64 183 71 49 43 639 42 72 29522 101 9783 344 2936 1145 2757 553
internal_count=33935 991 32944 3422 665 321 220 156 84 41 959 249 66 710 64 183 71 49 43 639 42 72 29522 101 9783 344 2936 1145 2757 553
is_linear=0
shrinkage=0.05


Tree=16
num_leaves=31
num_cat=0
split_feature=10 10 10 10 6 8 10 10 10 3 8 0 10 6 1 10 6 6 0 1 10 4 2 10 10 0 3 4 0 10
split_gain=6828.62 584.07 106.562 77.3985 57.0279 14.07 15.4165 13.4322 10.5371 6.26852 2.03214 1.95684 1.95403 1.92614 2.04156 1.82134 1.56141 1.0842 1.0491 1.0266 1.00319 1.0089 0.945044 0.74424 0.665556 0.795174 0.595718 0.707186 0.520029 0.426718
threshold=16.467823916956586 1.6226664131486588 4.5636474709524677 0.36686965919281395 1.0000000180025095e-35 -0.56806474673127016 2.6001164639081047 0.034579796462229549 0.76389131336442118 -0.47285619309735905 -0.66312265824291694 201314.50000000003 -0.04309835326699795 -0.24999999999999994 4.8845027629868829 0.15109702105607084 1.0000000180025095e-35 1.0000000180025095e-35 201308.50000000003 2.3815099988872306 1.0357648374167174 -0.42228055967588346 0.87489974538058979 1.0875502705695359 0.59127320285502682 201601.50000000003 -1.0967895748333352 0.46709803376536874 201218.50000000003 0.58264229732955697
decision_type=2 2 2 2 2 2 2 2 2 2 2 2 2 2 2 2 2 2 2 2 2 2 2 2 2 2 2 2 2 2
left_child=1 3 5 7 -4 11 9 12 10 -7 19 -3 -1 20 18 -9 -17 29 -15 28 -10 -22 23 -20 -19 -26 27 -18 -5 -12
right_child=-2 2 4 8 -6 6 -8 15 13 -11 17 -13 -14 14 -16 16 26 24 22 -21 21 -23 -24 -25 25 -27 -28 -29 -30 -31
leaf_value=-0.0017523596517511281 0.90139365792274484 0.049757736998920638 0.093983664604670863 0.015099338612154775 0.19034236547138011 0.075269216299057015 0.096297621465212591 0.0014839552852572841 0.013230935593139079 0.041666947156190876 0.0070619279447083298 0.030602909984687968 -0.00030855481260582871 0.037676931865622897 0.016027300542918965 0.0024122146175758674 0.0064238748532564685 0.013652523216747104 0.025325538379450643 -0.0009310008562169969 0.031942518316209319 0.018398623137777164 0.018373408532616767 0.037006466701626779 0.027716556333360221 0.014518795882351696 0.006260633493611072 0.018834645313803446 0.0066749618203741402 0.013523381953372769
leaf_weight=28550 21 24 34 23 28 23 37 1154 51 35 78 30 2553 34 32 371 24 147 30 40 20 44 22 25 21 25 309 22 90 38
leaf_count=28550 21 24 34 23 28 23 37 1154 51 35 78 30 2553 34 32 371 24 147 30 40 20 44 22 25 21 25 309 22 90 38
internal_value=0 -0.00051258 0.0824164 -0.00103176 0.1375 0.0594954 0.0710794 -0.00138578 0.0151856 0.054992 0.0106655 0.0391162 -0.00163385 0.0232798 0.0271541 0.00271834 0.00468044 0.0129989 0.0303618 0.00595288 0.0184623 0.0226311 0.0271317 0.0306351 0.015295 0.0205439 0.0070509 0.0123595 0.00838966 0.00917861
internal_weight=0 33914 211 33703 62 149 95 32983 720 58 462 54 31103 258 143 1880 726 309 111 153 115 64 77 55 193 46 355 46 113 116
internal_count=33935 33914 211 33703 62 149 95 32983 720 58 462 54 31103 258 143 1880 726 309 111 153 115 64 77 55 193 46 355 46 113 116
is_linear=0
shrinkage=0.05


Tree=17
num_leaves=31
num_cat=0
split_feature=10 9 9 9 9 9 6 9 9 9 9 2 7 4 10 5 10 10 10 6 10 6 5 4 6 9 11 7 11 9
split_gain=6162.83 562.752 150.452 59.4236 26.19 23.3955 13.0678 4.09082 3.50056 2.31689 1.78331 3.29795 0.997225 1.00174 0.959077 1.33493 0.915977 0.816406 1.14857 0.780889 0.709805 0.492751 0.431726 0.421437 0.410888 0.395892 0.567792 0.347353 0.340723 0.320806
threshold=16.467823916956586 3.04328530207742 0.61801605939078641 6.7492176444195957 1.4818697522444404 0.14721579678554506 1.0000000180025095e-35 -0.00827786792811268 0.92036485188956518 0.36317921999895858 1.7583029339576097 0.87489974538058979 0.97094181742610919 -0.75719601316791407 2.3778706466272594 0.68301270189221941 1.4349442179696921 0.36686965919281395 0.50496414760032959 -0.24999999999999994 -0.0603601643179374 0.25000000000000017 0.68301270189221941 0.55363675436970083 1.0000000180025095e-35 0.48843800546273836 0.14777966027642545 0.74851074817261043 0.6033897285464731 0.056511159035911362
decision_type=2 2 2 2 2 2 2 2 2 2 2 2 2 2 2 2 2 2 2 2 2 2 2 2 2 2 2 2 2 2
left_child=1 2 5 6 8 7 -3 20 17 21 16 14 13 -10 15 -12 -6 -4 -19 23 -1 -7 -15 28 -9 -21 -27 -24 -11 -26
right_child=-2 3 4 -5 10 9 -8 24 12 19 11 -13 -14 22 -16 -17 -18 18 -20 25 -22 -23 27 -25 29 26 -28 -29 -30 -31
leaf_value=-0.0017099102286495926 0.8563239679450082 0.070450953307251138 0.0060069449669258165 0.18069265772556437 0.04491998485289514 0.0033763199117758376 0.11513280450469919 -4.8564032146652966e-05 0.03228335093993407 0.0063245689830204706 0.03963253109582833 0.065503020260645001 0.035061562891033564 0.016477812197990716 0.036724276235327126 0.057460643067246388 0.030563977848738433 0.027196676692082769 0.014736369909463271 0.0092749939966168191 -0.00095661837956469208 0.0061156355464527948 0.026095024943351749 0.001984509849586548 0.00066106981633235883 0.0086897020538647968 0.016710496412410417 0.018646539235487581 0.012478070232957121 0.0024351070523112033
leaf_weight=26645 21 30 22 29 20 471 36 991 26 82 21 23 22 32 29 21 25 21 155 122 3543 252 45 39 641 36 57 24 31 423
leaf_count=26645 21 30 22 29 20 471 36 991 26 82 21 23 22 32 29 21 25 21 155 122 3543 252 45 39 641 36 57 24 31 423
internal_value=0 -0.000486951 -0.000828317 0.121036 0.0267906 -0.00123101 0.0948229 -0.00147456 0.0194445 0.00597348 0.0451297 0.0490482 0.0252336 0.0235311 0.0437178 0.0485466 0.0369444 0.015088 0.0162231 0.00920901 -0.0016215 0.0043311 0.0212781 0.00646599 0.000684024 0.0111483 0.0136057 0.0235042 0.0080127 0.00136635
internal_weight=0 33914 33819 95 486 33333 66 32243 347 1090 139 94 149 127 71 42 45 198 176 367 30188 723 101 152 2055 215 93 69 113 1064
internal_count=33935 33914 33819 95 486 33333 66 32243 347 1090 139 94 149 127 71 42 45 198 176 367 30188 723 101 152 2055 215 93 69 113 1064
is_linear=0
shrinkage=0.05


Tree=18
num_leaves=31
num_cat=0
split_feature=10 9 9 9 9 9 12 3 9 9 8 1 9 3 7 1 7 4 12 1 4 1 9 8 9 6 11 10 8 6
split_gain=5561.96 507.883 135.975 53.6298 26.7933 18.0921 15.1695 6.03895 3.70577 3.64975 3.10372 2.63171 2.15269 1.66435 1.44431 1.09445 1.19607 1.06651 0.814251 0.776493 0.758706 0.742388 0.637707 0.529341 0.517298 0.490526 0.475954 0.434946 0.356442 0.347034
threshold=16.467823916956586 3.04328530207742 0.73895557639029796 6.7492176444195957 0.14721579678554506 1.6244056115652934 0.070410673361730972 -0.15885283593915653 -0.025554941785185754 0.47548020006993358 -0.56806474673127016 0.47572670736573658 0.99379241578212574 -0.18771090155538234 0.97094181742610919 1.727731247010921 -0.23931566428746417 -0.40867931727780704 0.56221855677062615 2.0188801456548724 -0.33901529254686152 1.727731247010921 0.3674984884632268 -0.56806474673086049 0.052191890571643092 1.0000000180025095e-35 1.060399427051623 -0.0603601643179374 0.23931566428549461 0.25000000000000017
decision_type=2 2 2 2 2 2 2 2 2 2 2 2 2 2 2 2 2 2 2 2 2 2 2 2 2 2 2 2 2 2
left_child=1 2 4 6 8 12 -3 -8 27 15 13 -12 21 -7 20 22 -17 -18 -13 25 -14 26 -6 -21 -10 -11 -4 -1 -24 -26
right_child=-2 3 5 -5 9 10 7 -9 24 19 11 18 14 -15 -16 16 17 -19 -20 23 -22 -23 28 -25 29 -27 -28 -29 -30 -31
leaf_value=-0.0016258317986696349 0.81350776641851386 0.060349500637788038 0.017153064382530874 0.17165802554709131 0.0050732933240953942 0.023605788039276376 0.089980008117854601 0.12883534505963326 -9.1843088139184056e-05 0.010386362910250446 0.06557442711835558 0.052755267279488705 0.029245253484451068 0.043759694713212199 0.036574814110994343 -0.0096816526073962451 -0.0080492774676531563 0.0039884090027493112 0.040160809231526928 0.0017371405285365625 0.020730829680992647 0.011480685138270599 0.0066574047361791597 0.01052015080737571 0.0006645150525741066 0.015409854135376592 0.025632549279733848 -0.00099129599876763771 0.01185209955447906 0.0027791693965303196
leaf_weight=26583 21 26 59 29 516 20 20 20 1800 92 22 21 38 21 25 20 20 230 33 29 84 44 75 42 556 103 23 3006 59 298
leaf_count=26583 21 26 59 29 516 20 20 20 1800 92 22 21 38 21 25 20 20 230 33 29 84 44 75 42 556 103 23 3006 59 298
internal_value=0 -0.000462603 -0.000786901 0.114984 -0.00112935 0.0285659 0.0900817 0.109408 -0.00140083 0.00625135 0.045016 0.0509974 0.0215158 0.0339285 0.0256264 0.00475991 0.00208413 0.00302539 0.0450587 0.0114097 0.0233829 0.0167201 0.00587138 0.00693272 0.000388977 0.0130398 0.0195315 -0.00156137 0.00894462 0.00140242
internal_weight=0 33914 33819 95 33429 390 66 40 32243 1186 117 76 273 41 147 920 270 250 54 266 122 126 650 71 2654 195 82 29589 134 854
internal_count=33935 33914 33819 95 33429 390 66 40 32243 1186 117 76 273 41 147 920 270 250 54 266 122 126 650 71 2654 195 82 29589 134 854
is_linear=0
shrinkage=0.05


Tree=19
num_leaves=31
num_cat=0
split_feature=9 9 9 9 12 9 9 9 8 1 9 3 12 9 1 9 2 12 1 1 6 2 8 11 9 8 0 9 8 8
split_gain=4844.77 414.028 98.5671 60.8832 53.5568 10.8148 8.00098 6.62831 2.80111 2.37512 1.93866 1.50207 1.42488 1.39148 1.17363 0.809482 0.745349 0.734862 0.708979 0.688491 0.607433 0.599752 0.589395 0.49714 0.473194 0.431033 0.369401 0.337078 0.318919 0.287062
threshold=13.079105578804745 1.6244056115652934 4.4340897475718029 0.3199865353562758 0.56221855677062615 0.92036485188956518 0.0089992059289603962 3.04328530207742 -0.56806474673127016 0.47572670736573658 0.48843800546273836 -0.18771090155538234 2.1209891639827378 0.14721579678554506 2.0188801456548724 -0.055789821035063636 -0.77392661470114865 0.56221855677062615 0.18206564936755135 1.2728700437643514 1.0000000180025095e-35 0.43512542450333141 -0.82298386589334205 0.32653678269438524 1.0456236373533452 -0.56806474673086049 201224.50000000003 0.72599777099749307 0.99635443704926241 0.82298386589474803
decision_type=2 2 2 2 2 2 2 2 2 2 2 2 2 2 2 2 2 2 2 2 2 2 2 2 2 2 2 2 2 2
left_child=1 3 7 6 -4 10 15 8 11 -10 16 -3 18 28 20 -1 -5 -11 -7 21 26 -15 -16 -24 -20 -21 -12 -28 -8 -22
right_child=-2 2 4 5 -6 12 13 -9 9 17 14 -13 -14 19 22 -17 -18 -19 24 25 29 -23 23 -25 -26 -27 27 -29 -30 -31
leaf_value=-0.0015359859952476728 0.71018488705158234 0.022425498478114606 0.086147975815193997 -0.00045022668500402661 0.18436651378870011 0.029032853695339172 0.00077163972227953226 0.067845207121332782 0.062295705249363731 0.050117503691996849 0.017070528783875962 0.041571710263157174 0.035917246057873685 0.0032987507419010814 0.001084799597111459 -0.00070882387751876027 0.0075149966433708838 0.038152768485473866 0.01532672377960647 -0.0021953331290205827 0.017877370756533412 0.0071242946721545982 0.0057621521323055376 0.013849992930006825 0.022283102936866084 0.0027925398252985211 0.0081450216472148899 0.014649573010059872 0.0062517792978151535 0.012829828253243029
leaf_weight=27312 24 20 35 33 23 29 1587 34 22 21 23 21 21 273 26 3317 267 33 34 64 90 164 38 38 87 134 69 28 27 41
leaf_count=27312 24 20 35 33 23 29 1587 34 22 21 23 21 21 273 26 3317 267 33 34 64 90 164 38 38 87 134 69 28 27 41
internal_value=0 -0.000463544 0.0696932 -0.000898615 0.125097 0.0125253 -0.00123505 0.0484124 0.0427652 0.0484476 0.00959405 0.0322321 0.023719 0.00164341 0.0121056 -0.00144641 0.00663882 0.0428057 0.0220113 0.00362621 0.0139434 0.00473442 0.007583 0.00980607 0.0203284 0.0011803 0.0113735 0.0100226 0.000863315 0.0162976
internal_weight=0 33911 209 33702 58 824 32878 151 117 76 653 41 171 2249 353 30629 300 54 150 635 251 437 102 76 121 198 120 97 1614 131
internal_count=33935 33911 209 33702 58 824 32878 151 117 76 653 41 171 2249 353 30629 300 54 150 635 251 437 102 76 121 198 120 97 1614 131
is_linear=0
shrinkage=0.05


Tree=20
num_leaves=31
num_cat=0
split_feature=10 10 10 10 6 10 8 10 3 10 6 3 11 6 2 10 11 6 1 6 0 10 10 10 1 4 10 8 0 4
split_gain=4089.38 373.527 109.375 54.2555 52.7822 12.9603 10.6146 8.63765 6.11974 6.03384 3.73937 1.99425 2.36113 1.98477 1.61684 1.28421 1.25553 1.16948 1.02551 0.902682 0.893188 0.828771 0.779938 0.625672 0.58711 1.74076 0.556631 0.542516 0.503091 0.728559
threshold=16.467823916956586 1.6226664131486588 4.5636474709524677 0.25035243459897266 1.0000000180025095e-35 0.79409948270356523 -0.56806474673086049 2.6001164639081047 -0.47285619309735905 -0.012890183927853932 -0.24999999999999994 -0.081969662112842109 0.65435452515074244 0.25000000000000017 -0.14394854503075694 0.59127320285502682 0.50800188534982571 0.25000000000000017 2.0188801456548724 1.0000000180025095e-35 201601.50000000003 0.19425154868341946 1.0357648374167174 -0.0603601643179374 1.4663677866533888 -0.63555118398158517 0.086365229615047875 -0.88545602565205195 201601.50000000003 0.6597149951366339
decision_type=2 2 2 2 2 2 2 2 2 2 2 2 2 2 2 2 2 2 2 2 2 2 2 2 2 2 2 2 2 2
left_child=1 3 6 9 -4 13 14 8 -8 23 22 12 -12 18 -3 -15 -10 24 19 -5 -17 28 -7 -1 26 -26 -11 -20 29 -19
right_child=-2 2 4 5 -6 10 7 -9 16 17 11 -13 -14 15 -16 20 -18 21 27 -21 -22 -23 -24 -25 25 -27 -28 -29 -30 -31
leaf_value=-0.0014601303382282198 0.69754322029295424 0.018069051700117796 0.085193779219740209 0.0059594390551159565 0.1886861486868425 0.0093203120585531006 0.064859141223132619 0.07473091112600791 0.024180758232250812 6.1989883252558419e-05 0.02396321415435523 0.021884607992628043 0.046640545942566614 0.009565875452374006 0.035448874329449612 0.026567022200851217 0.041310013587708062 0.0018961821477046675 -0.0030667543178424239 0.012032365429484727 0.011984024879833063 0.0074057921468920545 0.017744180517362769 -0.00073021998105347484 -0.015684529385041623 -0.00063779089537793808 0.0021437545042030035 0.0039666365178139965 0.00083093065257750464 0.0063351681535896752
leaf_weight=26548 21 23 28 314 22 50 24 37 20 1023 24 85 22 180 32 21 23 298 36 76 21 80 61 3301 21 227 468 115 412 134
leaf_count=26548 21 23 28 314 22 50 24 37 20 1023 24 85 22 180 32 21 23 298 36 76 21 80 61 3301 21 227 468 115 412 134
internal_value=0 -0.000406751 0.0662291 -0.000822268 0.13073 0.0106196 0.0459457 0.0553405 0.0446323 -0.00117596 0.0207017 0.0264229 0.0348089 0.0074219 0.0281809 0.0114028 0.0333429 0.00110451 0.00578832 0.00714288 0.0192755 0.00254197 0.0139496 -0.00137941 0.000340736 -0.00191191 0.000715421 0.0022898 0.00208095 0.00327309
internal_weight=0 33726 209 33517 50 1005 159 104 67 32512 242 131 46 763 55 222 43 2663 541 390 42 924 111 29849 1739 248 1491 151 844 432
internal_count=33747 33726 209 33517 50 1005 159 104 67 32512 242 131 46 763 55 222 43 2663 541 390 42 924 111 29849 1739 248 1491 151 844 432
is_linear=0
shrinkage=0.05


Tree=21
num_leaves=31
num_cat=0
split_feature=9 9 9 9 7 9 7 9 1 6 9 1 3 3 9 1 9 11 1 4 2 10 7 9 4 6 6 1 1 4
split_gain=4245.13 327.941 84.1637 58.06 40.1023 10.7369 7.67229 7.0375 6.74432 1.93205 1.84055 1.69977 1.61716 1.4612 1.01629 0.93986 0.862614 0.773241 0.737581 1.04748 0.736204 0.734261 0.59542 0.557781 0.549487 0.531863 0.503833 0.499948 0.455064 0.7621
threshold=16.724568162647167 1.7583029339576097 4.4340897475718029 0.33726360921334891 0.56806474673159402 0.92036485188956518 0.2393156642883652 0.021957011321765207 2.9206108956400691 -0.24999999999999994 0.6244949620871888 2.9206108956400691 -0.081969662112842109 0.085488325553672848 0.11266164907139888 1.727731247010921 -0.055789821035063636 0.14777966027642545 1.2728700437643514 -0.29604813621649967 0.60464794232374308 0.36686965919281395 0.7485107481707054 1.3414935271557218 0.82327888456130749 0.25000000000000017 -0.68301270189221952 0.71017320525011618 0.18206564936755135 -0.82912368576613826
decision_type=2 2 2 2 2 2 2 2 2 2 2 2 2 2 2 2 2 2 2 2 2 2 2 2 2 2 2 2 2 2
left_child=1 3 6 7 -4 10 13 16 -8 23 15 12 -11 -3 28 17 -1 -5 26 -20 -10 -12 -19 27 -17 -23 -16 -7 -9 -30
right_child=-2 2 4 5 -6 9 8 14 20 11 21 -13 -14 -15 18 24 -18 22 19 -21 -22 25 -24 -25 -26 -27 -28 -29 29 -31
leaf_value=-0.0013844812850924981 0.72826195791363713 0.025966600419428106 0.065324336141347888 0.0062466705120878289 0.15613644132691046 0.017861589904943551 0.076906061559915542 0.0016423302598130131 0.038831985400368772 0.041797594570865237 0.0042776877060532572 0.01832106220535934 0.02619876963672815 0.042589359602425249 0.0016143500010795315 -0.00021531895282141003 -0.00056379097936514681 0.0092442071923869665 -0.0094074804659770896 0.0017467149479729886 0.050867557829176936 0.012475996508401935 0.015870730525680953 0.022149122792429157 0.0065910460646736672 0.018499864149769698 0.0047545070650920384 0.0077075882994739166 -0.0092941698243679573 3.2071478404838631e-05
leaf_weight=27089 20 39 20 146 31 27 25 610 24 24 20 40 54 20 175 52 3631 110 23 248 27 114 49 28 69 54 473 22 23 460
leaf_count=27089 20 39 20 146 31 27 25 610 24 24 20 40 54 20 175 52 3631 110 23 248 27 114 49 28 69 54 473 22 23 460
internal_value=0 -0.000405652 0.0658024 -0.000772805 0.120524 0.0124594 0.0451298 -0.00109985 0.0556321 0.0226806 0.00921325 0.026701 0.0309984 0.0316014 0.00176492 0.00739467 -0.00128748 0.00887391 0.00299043 0.000800049 0.0452038 0.0133341 0.0112863 0.0165195 0.003666 0.0144122 0.00390647 0.0133027 0.0007345 -0.000412035
internal_weight=0 33727 186 33541 51 809 135 32732 76 195 614 118 78 59 2012 426 30720 305 919 271 51 188 159 77 121 168 648 49 1093 483
internal_count=33747 33727 186 33541 51 809 135 32732 76 195 614 118 78 59 2012 426 30720 305 919 271 51 188 159 77 121 168 648 49 1093 483
is_linear=0
shrinkage=0.05


Tree=22
num_leaves=31
num_cat=0
split_feature=10 10 10 10 6 10 8 12 10 10 6 2 6 0 2 10 6 1 4 0 0 5 10 10 10 1 4 8 0 1
split_gain=3329.53 304.887 89.1599 44.2059 43.2882 10.5405 8.8642 7.61282 5.67882 4.93577 3.08925 2.48214 1.6793 1.58163 1.37329 1.0517 1.02238 0.87443 0.857684 1.00215 0.776186 0.752556 0.721875 0.690614 0.520332 0.51532 1.48876 0.472262 0.465494 0.518121
threshold=16.467823916956586 1.6226664131486588 4.5636474709524677 0.25035243459897266 1.0000000180025095e-35 0.79409948270356523 -0.56806474673086049 1.0000000180025095e-35 2.6001164639081047 -0.012890183927853932 1.0000000180025095e-35 0.87489974538058979 0.25000000000000017 201308.50000000003 -0.14394854503075694 0.59127320285502682 0.25000000000000017 2.0188801456548724 0.78014485878932704 201601.50000000003 201601.50000000003 0.93301270189221952 1.0357648374167174 0.19425154868341946 -0.0603601643179374 1.4663677866533888 -0.63555118398158517 -0.88545602565205195 201312.50000000003 2.9206108956400691
decision_type=2 2 2 2 2 2 2 2 2 2 2 2 2 2 2 2 2 2 2 2 2 2 2 2 2 2 2 2 2 2
left_child=1 3 6 9 -4 12 14 -8 11 24 22 -9 17 -12 -3 -14 25 21 19 -15 -17 -5 -7 -18 -1 -11 -27 -19 29 -28
right_child=-2 2 4 5 -6 10 7 8 -10 16 13 -13 15 18 -16 20 23 27 -20 -21 -22 -23 -24 -25 -26 26 28 -29 -30 -31
leaf_value=-0.0013192988646947141 0.62940981340195457 0.015969073508724407 0.076833765873951576 0.0053694152637614881 0.17055751423944127 0.0084566197120848133 0.028352728489272557 0.036301354706908269 0.075370121554781996 0.00063777836371399184 0.033667650294955824 0.059839625709823201 0.0087012174668295011 0.030666536976012494 0.031986537529155611 0.024285212618165783 0.0019240463359108109 -0.0030290961808835466 0.014451636891702519 0.017847376993546885 0.010690867679104918 0.010914396334402755 0.016403858458638312 0.0067848413713363703 -0.00065366348241312439 -0.01456045383730227 -0.009997583552612925 0.003533108382202361 0.00048046597752305633 0.00079951309831812986
leaf_weight=26548 21 23 28 314 22 53 29 24 30 1491 32 21 180 31 32 21 844 36 34 30 21 76 62 80 3301 21 25 115 182 20
leaf_count=26548 21 23 28 314 22 53 29 24 30 1491 32 21 180 31 32 21 844 36 34 30 21 76 62 80 3301 21 25 115 182 20
internal_value=0 -0.000367016 0.0598357 -0.000742419 0.118072 0.00958558 0.0415224 0.0501077 0.0585196 -0.00106167 0.0186779 0.0472859 0.00670179 0.0240536 0.0252883 0.0103636 0.00100088 0.00519917 0.0208152 0.024362 0.017488 0.00644998 0.0127412 0.00234489 -0.00124569 0.000286747 -0.00182369 0.00196861 -0.000645394 -0.00519887
internal_weight=0 33726 209 33517 50 1005 159 104 75 32512 242 45 763 127 55 222 2663 541 95 61 42 390 115 924 29849 1739 248 151 227 45
internal_count=33747 33726 209 33517 50 1005 159 104 75 32512 242 45 763 127 55 222 2663 541 95 61 42 390 115 924 29849 1739 248 151 227 45
is_linear=0
shrinkage=0.05


Tree=23
num_leaves=31
num_cat=0
split_feature=9 9 9 9 9 9 9 11 6 6 1 9 8 9 1 4 0 4 9 11 10 1 4 6 1 9 6 6 6 12
split_gain=3502.75 264.71 68.5864 47.5747 14.719 8.69099 5.78754 5.03625 2.95763 1.60814 1.55013 1.53939 1.31595 0.861532 0.804224 0.838381 0.720608 0.782028 0.688487 0.653055 0.610685 0.512661 1.43019 0.511291 0.638848 0.466151 0.453076 0.432249 0.423196 0.398284
threshold=16.724568162647167 1.7583029339576097 6.2481825025644762 0.33726360921334891 3.7300489878960748 0.92036485188956518 0.021957011321765207 0.50800188534982571 1.0000000180025095e-35 -0.24999999999999994 2.9206108956400691 0.6244949620871888 0.35460488704180992 0.17313140757115467 2.3815099988872306 0.82327888456130749 201601.50000000003 0.069460152337360928 -0.055789821035063636 1.0000000180025095e-35 0.36686965919281395 1.4663677866533888 -0.5862381506035742 0.25000000000000017 1.4663677866533888 1.3414935271557218 -0.68301270189221952 0.6830127018922193 0.25000000000000017 0.1022589448813446
decision_type=2 2 2 2 2 2 2 2 2 2 2 2 2 2 2 2 2 2 2 2 2 2 2 2 2 2 2 2 2 2
left_child=1 3 4 6 7 11 18 12 -9 25 16 14 29 21 19 -16 17 -11 -1 27 -13 -8 -23 24 -15 26 -7 -5 -22 -3
right_child=-2 2 -4 5 -6 9 13 8 -10 10 -12 20 -14 23 15 -17 -18 -19 -20 -21 28 22 -24 -25 -26 -27 -28 -29 -30 -31
leaf_value=-0.0012513533218940045 0.66152548372745512 0.018212980199383482 0.12835144996643066 0.0040089569389493316 0.074893352564643412 0.0070065482791202768 0.0014163138390216835 0.034704370966011831 0.058372001259615926 0.038575406696485438 0.016140741761773825 0.0038683195412158966 0.037570813413709409 0.0035625484110446783 -0.0029523974224829521 0.0064338849162774497 0.021642159394643926 0.026132460340159015 -0.00051815923780782554 0.0098042598256819682 0.011383638008121859 -0.01385617493710015 2.8909785221056905e-05 0.0052995470339810714 -0.0010070043159774631 0.020000875714634145 0.016624396424740555 0.011523124324562758 0.016757000285562956 0.027951029346634945
leaf_weight=27089 20 21 30 114 34 24 1180 22 33 23 40 20 25 246 39 61 27 28 3631 189 114 20 255 200 111 28 25 23 54 21
leaf_count=27089 20 21 30 114 34 24 1180 22 33 23 40 20 25 246 39 61 27 28 3631 189 114 20 255 200 111 28 25 23 54 21
internal_value=0 -0.000368632 0.0591151 -0.000698496 0.0458004 0.0112794 -0.000994541 0.0376925 0.0489049 0.0204754 0.0241433 0.00835889 0.0284883 0.00160339 0.00669573 0.00277323 0.0282472 0.031744 -0.00116469 0.00789895 0.0121275 0.000963229 -0.000980915 0.00327562 0.00214176 0.0148544 0.0119136 0.00527046 0.0131108 0.023082
internal_weight=0 33727 186 33541 156 809 32732 122 55 195 118 614 67 2012 426 100 78 51 30720 326 188 1455 275 557 357 77 49 137 168 42
internal_count=33747 33727 186 33541 156 809 32732 122 55 195 118 614 67 2012 426 100 78 51 30720 326 188 1455 275 557 357 77 49 137 168 42
is_linear=0
shrinkage=0.05


Tree=24
num_leaves=31
num_cat=0
split_feature=9 9 9 9 9 9 12 6 9 9 11 6 10 9 9 1 12 11 1 7 1 4 6 0 8 6 7 1 0 1
split_gain=3161.23 239.073 77.6184 27.7153 12.5662 10.5817 8.36659 2.83231 2.01843 1.84178 3.79869 1.37936 1.3516 1.3205 0.881928 0.79758 0.701973 0.551681 0.542532 0.530704 0.5299 1.3189 0.478612 0.467199 0.449024 0.428971 0.45579 0.417349 0.411126 0.407834
threshold=16.724568162647167 3.04328530207742 0.64393167017639608 6.7492176444195957 0.091065306750057515 1.3587706010127947 0.1022589448813446 1.0000000180025095e-35 0.33726360921334891 1.7583029339576097 0.82282740801512422 -0.24999999999999994 1.3874742375796087 -0.034193478713722289 0.92036485188956518 1.727731247010921 -0.49878212193436272 0.14777966027642545 2.9206108956400691 0.7485107481707054 1.2728700437643514 -0.5862381506035742 0.25000000000000017 201306.50000000003 -0.56806474673086049 -0.68301270189221952 0.97094181742583185 0.53364726403608664 201312.50000000003 1.4663677866533888
decision_type=2 2 2 2 2 2 2 2 2 2 2 2 2 2 2 2 2 2 2 2 2 2 2 2 2 2 2 2 2 2
left_child=1 2 4 6 13 11 -3 16 20 12 -11 29 -9 -1 -13 17 -7 -10 22 -19 25 -22 -16 -17 28 -6 -27 -21 -23 -4
right_child=-2 3 5 -5 8 7 -8 9 15 10 -12 14 -14 -15 18 23 -18 19 -20 27 21 24 -24 -25 -26 26 -28 -29 -30 -31
leaf_value=-0.001160213862509628 0.62844920322299014 0.038491190979257232 0.012207848525657837 0.12679280180197497 0.0012108145630609559 0.030328283635899424 0.078444389783238117 0.03646269510500133 0.0056306894407108692 0.031256115113330242 0.058717945516109475 0.013758079365755413 0.018080614923965187 -1.0571451145771913e-05 0.019530995172179499 -0.0039653440506663175 0.019362639453848481 0.0078982182664081597 0.014839872194454075 0.0091440797773311329 -0.011731732143089176 -0.0063639641065882258 0.029189293442860892 0.0043856863773911649 0.0029055056213590363 0.0033677821841603742 0.0080473176771318263 0.018309638876881865 0.00083482978550498098 0.0063528729751309819
leaf_weight=28909 20 20 81 26 212 20 38 20 154 34 20 99 20 2734 29 20 54 112 25 23 20 28 23 103 197 506 58 27 68 47
leaf_count=28909 20 20 81 26 212 20 38 20 154 34 20 99 20 2734 29 20 54 112 25 23 20 28 23 103 197 506 58 27 68 47
internal_value=0 -0.000350201 -0.000560549 0.0838967 -0.00084703 0.0195727 0.0646674 0.0296433 0.0035816 0.0354035 0.0414272 0.0140073 0.0272717 -0.00106088 0.0168795 0.00644378 0.0223263 0.00777342 0.0208928 0.00981034 0.00242779 0.000691142 0.0238029 0.0030278 0.00153912 0.00312827 0.00384901 0.0140935 -0.00126482 0.010058
internal_weight=0 33727 33643 84 33171 472 58 168 1528 94 54 304 40 31643 176 439 74 316 77 162 1089 313 52 123 293 776 564 50 96 128
internal_count=33747 33727 33643 84 33171 472 58 168 1528 94 54 304 40 31643 176 439 74 316 77 162 1089 313 52 123 293 776 564 50 96 128
is_linear=0
shrinkage=0.05


Tree=25
num_leaves=31
num_cat=0
split_feature=9 9 9 9 7 9 9 9 10 9 9 9 4 4 11 0 1 0 9 0 0 12 1 12 10 7 1 4 10 1
split_gain=1941.56 216.414 46.2466 33.6257 32.7155 6.76846 5.66011 4.0789 3.52104 1.48191 0.912248 0.902112 0.879314 1.30527 0.588013 0.621355 0.606937 0.633362 0.490118 0.458277 0.507709 0.441379 0.438206 0.626182 0.775875 0.631835 0.409163 1.28792 0.367167 0.350141
threshold=16.724568162647167 2.2161453911700462 0.45820312621286047 5.3281783196753354 0.66312265824019045 0.065149695964447904 1.3414935271557218 3.2246945775766869 2.6519018970609229 0.75191338178310274 0.24655897146371525 -0.03851274717799056 -0.72283366003353555 -0.29604813621649967 0.62274113788397467 201308.50000000003 1.2728700437643514 201312.50000000003 1.7583029339576097 201242.50000000003 201310.50000000003 0.76091283524829201 1.4663677866533888 1.399551288499761 0.61716591943143595 0.56806474672990737 1.2728700437643514 -0.6889185816292589 1.3572660682404647 1.0000000180025095e-35
decision_type=2 2 2 2 2 2 2 2 2 2 2 2 2 2 2 2 2 2 2 2 2 2 2 2 2 2 2 2 2 2
left_child=1 2 5 7 -5 11 9 8 -3 22 26 -1 -8 -14 16 -16 -11 -18 28 -12 -21 -17 -4 24 25 -24 -7 -28 -15 -22
right_child=-2 3 6 4 -6 10 12 -9 -10 14 19 -13 13 18 15 21 17 -19 -20 20 29 -23 23 -25 -26 -27 27 -29 -30 -31
leaf_value=-0.0011043262158771017 0.49242980577051637 0.049429734492053595 0.0094132043170990012 0.055192918833345178 0.14454689087080105 0.0021716477460911147 0.014390200499578246 0.059352082311100257 0.024022570617496967 0.014286134954163572 -0.0001598701071438532 -0.00015545347848349068 0.035825571119785314 0.024170198512147183 0.023316417789707583 0.0097621688682755295 0.00043576660821036925 0.011362051104515559 0.027564767942480417 0.0090700214437674734 0.0068150031176963076 0.017573951522354036 -0.0068664097481153227 0.011807106994508234 0.010275898285210134 0.0043704877832326404 -0.011937438971584752 0.00090741033968499876 0.015584660406845311 0.0031359892226429931
leaf_weight=28964 20 30 201 20 21 802 28 37 25 70 52 2742 20 20 24 33 21 36 23 60 87 40 22 28 25 29 21 276 33 252
leaf_count=28964 20 30 201 20 21 802 28 37 25 70 52 2742 20 20 24 33 21 36 23 60 87 40 22 28 25 29 21 276 33 252
internal_value=0 -0.00035613 -0.000605804 0.0632994 0.10096 -0.00086455 0.0125716 0.0465161 0.037881 0.0103179 0.0023616 -0.00102227 0.0221865 0.0244604 0.0134059 0.0163372 0.011167 0.00733658 0.0214696 0.00425513 0.00483052 0.0140426 0.00804995 0.00541519 0.00306027 -0.000476801 0.00158455 -8.11329e-07 0.0188245 0.00408016
internal_weight=0 34042 33909 133 41 33256 653 92 55 529 1550 31706 124 96 224 97 127 57 76 451 399 73 305 104 76 51 1099 297 53 339
internal_count=34062 34042 33909 133 41 33256 653 92 55 529 1550 31706 124 96 224 97 127 57 76 451 399 73 305 104 76 51 1099 297 53 339
is_linear=0
shrinkage=0.05


Tree=26
num_leaves=31
num_cat=0
split_feature=9 9 9 9 7 9 9 9 9 8 9 9 6 1 2 1 2 0 2 12 5 2 12 1 0 7 2 7 12 9
split_gain=1752.26 195.313 41.7376 30.3472 29.5257 6.10854 5.10825 3.68121 1.33743 1.10423 0.828543 0.823304 0.666491 0.732338 0.541103 0.670645 0.467726 0.440041 0.576826 0.427833 0.528348 0.734956 0.374972 0.361619 0.361272 0.425779 0.355804 0.492658 0.341382 0.319906
threshold=16.724568162647167 2.2161453911700462 0.45820312621286047 5.3281783196753354 0.66312265824019045 0.065149695964447904 1.3414935271557218 3.2246945775766869 0.75191338178310274 -0.56806474672992435 -0.060109089499331907 0.24655897146371525 -0.68301270189221952 2.9206108956400691 -0.074777729551046751 1.4663677866533888 1.8237301577383109 201308.50000000003 0.50213665378069006 1.0475472789248148 0.25000000000000011 0.732995855275277 2.635063460717666 1.4663677866533888 201519.50000000003 0.46472317204633684 -0.27690049513532011 -0.35460488704450038 0.044980725901943928 0.87717216724688252
decision_type=2 2 2 2 2 2 2 2 2 2 2 2 2 2 2 2 2 2 2 2 2 2 2 2 2 2 2 2 2 2
left_child=1 2 5 7 -5 10 8 9 14 -3 -1 22 -10 17 15 -4 26 -14 -19 20 -8 28 23 -7 25 -25 27 -13 -22 -20
right_child=-2 3 6 4 -6 11 19 -9 12 -11 -12 16 13 -15 -16 -17 -18 18 29 -21 21 -23 -24 24 -26 -27 -28 -29 -30 -31
leaf_value=-0.0010797320631873014 0.46780830189585693 0.027310092582592916 0.0071938634754984939 0.052433272469788794 0.1373195475765637 0.001898653185379123 0.016050416286188095 0.056384478353366664 0.0074428474907069766 0.041771559033429988 -0.00036947303782986266 -0.0049693129626102754 0.021399684398784303 0.0095342135811545738 0.0091074201178926867 -0.0019436028274607713 0.011517197289504112 0.019275131689170628 0.015552032067948444 0.016097327146053431 0.033183252882389797 0.017365843722258103 0.0072172961193635796 -0.0039488436737883607 -0.002458320660042335 0.0024569066789470288 0.004505688562436618 0.0030840276348510689 0.024683249107113593 0.0074949803329738126
leaf_weight=26859 20 22 71 20 21 794 22 37 47 33 4847 25 32 58 206 28 20 37 22 32 21 22 28 32 108 137 327 79 27 28
leaf_count=26859 20 22 71 20 21 794 22 37 47 33 4847 25 32 58 206 28 20 37 22 32 21 22 28 32 108 137 327 79 27 28
internal_value=0 -0.000338323 -0.000575514 0.0601345 0.0959116 -0.000821322 0.0119431 0.0441903 0.00980197 0.035987 -0.000971152 0.00224352 0.0127356 0.014141 0.00764745 0.00460953 0.00404237 0.0163863 0.0145423 0.0210772 0.0228093 0.0249335 0.00150532 0.00135599 -0.000199514 0.00124398 0.00369551 0.00114813 0.028402 0.0110401
internal_weight=0 34042 33909 133 41 33256 653 92 529 55 31706 1550 224 177 305 99 451 119 87 124 92 70 1099 1071 277 169 431 104 48 50
internal_count=34062 34042 33909 133 41 33256 653 92 529 55 31706 1550 224 177 305 99 451 119 87 124 92 70 1099 1071 277 169 431 104 48 50
is_linear=0
shrinkage=0.05


Tree=27
num_leaves=31
num_cat=0
split_feature=9 9 9 9 6 9 9 10 7 9 9 4 4 9 6 2 11 4 4 4 2 9 2 2 12 10 7 12 12 6
split_gain=1581.42 176.27 37.6903 27.4222 28.7632 5.89648 4.337 4.14221 2.26905 1.04248 0.956089 0.760863 1.14713 0.683654 0.601508 0.513932 0.606808 0.445624 0.799533 0.655882 0.604573 0.434361 0.433177 0.367676 0.366727 0.333441 0.325509 0.303113 0.241522 0.228553
threshold=16.724568162647167 2.2161453911700462 0.47548020006993358 4.4340897475718029 1.0000000180025095e-35 0.091065306750057515 1.3414935271557218 3.221541661741925 0.82298386589409278 0.75191338178310274 -0.03851274717799056 -0.72283366003353555 -0.29604813621649967 0.3113479984277393 -0.68301270189221952 1.3236437337208227 0.4679907166724438 0.74119007872697384 0.37442105849353291 1.0335130483331365 0.74593235878047437 1.7583029339576097 0.66039539680882264 -0.77392661470114865 2.635063460717666 1.3572660682404647 -2.5138479945479577e-13 1.1253884697736125 0.1022589448813446 1.0000000180025095e-35
decision_type=2 2 2 2 2 2 2 2 2 2 2 2 2 2 2 2 2 2 2 2 2 2 2 2 2 2 2 2 2 2
left_child=1 2 5 7 -5 10 9 8 -3 22 -1 -8 -13 24 -11 23 -17 18 20 -19 28 25 -4 -15 -7 -14 -24 -28 -16 -12
right_child=-2 3 6 4 -6 13 11 -9 -10 14 29 12 21 15 17 16 -18 19 -20 -21 -22 -23 26 -25 -26 -27 27 -29 -30 -31
leaf_value=-0.00099770421469249412 0.44441788017749789 0.038695551776992423 0.0059822293243039877 0.043707306822761895 0.11858066656980022 0.0017017205893429506 0.012771116488147528 0.022014207049971448 0.059484952209251263 0.0070707051043814809 -0.00052460044810178665 0.032793018631637097 0.021938912832411006 -0.00092725468000296417 0.01990313535637182 0.0040429429311188867 0.015681163345774015 0.0056722051172982905 0.02294997790058215 0.016481409995290248 0.0071931178619464246 0.025072739224718966 0.015335691452998183 0.0044350606612359586 0.0076089673020221576 0.013757180106459242 0.0061856342678561771 0.012707034511757748 0.013442910524706045 0.00034933132967046029
leaf_weight=28964 20 35 173 23 29 976 28 25 21 47 1409 20 20 37 23 24 21 36 26 23 30 23 23 235 27 33 49 28 39 1595
leaf_count=28964 20 35 173 23 29 976 28 25 21 47 1409 20 20 37 23 24 21 36 26 23 30 23 23 235 27 33 49 28 39 1595
internal_value=0 -0.000321407 -0.000546738 0.0571278 0.0854636 -0.00077442 0.0116579 0.0389368 0.0464916 0.00957077 -0.000909644 0.0200233 0.0221385 0.00250044 0.0120988 0.0045245 0.00947411 0.013434 0.015208 0.00988596 0.01302 0.0193347 0.00749648 0.00370563 0.00186074 0.0168446 0.0101161 0.00855705 0.0158394 -6.05787e-05
internal_weight=0 34042 33909 133 52 33288 621 81 56 497 31968 124 96 1320 224 317 45 177 118 59 92 76 273 272 1003 53 100 77 62 3004
internal_count=34062 34042 33909 133 52 33288 621 81 56 497 31968 124 96 1320 224 317 45 177 118 59 92 76 273 272 1003 53 100 77 62 3004
is_linear=0
shrinkage=0.05


Tree=28
num_leaves=31
num_cat=0
split_feature=9 9 9 9 9 9 12 9 10 9 10 4 4 9 4 1 9 0 0 9 4 11 1 0 0 0 4 1 4 1
split_gain=1427.23 159.084 34.0156 24.9975 5.67669 4.99218 4.80805 4.15733 2.92325 1.0944 0.704453 0.686679 1.03529 0.677016 0.422349 0.392183 0.392011 0.385659 0.424453 0.381834 0.374557 0.372139 0.558327 0.556681 0.545981 0.34922 0.500298 0.338723 1.13675 0.317537
threshold=16.724568162647167 2.2161453911700462 0.45820312621286047 6.7492176444195957 3.2246945775766869 0.065149695964447904 0.50767801156081982 1.3414935271557218 2.6519018970609229 0.73895557639029796 -0.04309835326699795 -0.72283366003353555 -0.29604813621649967 0.24655897146371525 -1.0995565831038434 2.0188801456548724 1.7583029339576097 201242.50000000003 201310.50000000003 0.6244949620871888 0.83872428704331603 0.62274113788397467 1.2728700437643514 201312.50000000003 201308.50000000003 201507.50000000003 0.15553780521362279 1.2728700437643514 -0.6889185816292589 1.0000000180025095e-35
decision_type=2 2 2 2 2 2 2 2 2 2 2 2 2 2 2 2 2 2 2 2 2 2 2 2 2 2 2 2 2 2
left_child=1 2 5 4 8 10 -6 9 -3 14 -1 -9 -13 27 -4 -16 -14 -15 -19 20 -17 22 -11 -24 -23 -26 -27 -7 -29 -20
right_child=-2 3 7 -5 6 13 -8 11 -10 21 -12 12 16 17 15 19 -18 18 29 -21 -22 24 23 -25 25 26 -28 28 -30 -31
leaf_value=-0.00095421795013997531 0.42219699651002884 0.042711923699826009 -0.00020419700653292241 0.097221364908748206 0.036997966650163847 0.0018941253570994917 0.068191831686223545 0.012132560528282609 0.019561780989170077 0.012487017463777879 -0.0001596693948678824 0.031153367571532725 0.016002395105952361 -0.00038953873249388731 0.0085648872982299184 -0.0016163041124430796 0.023819101876174305 0.008064767187315738 0.0061067454766946441 0.0098955198454306198 0.0063525371470263816 0.020042411847738553 -0.00058628284328040626 0.0096572524971432153 0.0070727798019236485 0.0098835110078535748 0.019742446375841445 -0.011296740866133146 0.0007707515404470779 0.0026032056106140818
leaf_weight=28615 20 30 20 27 21 802 30 28 25 73 3091 20 53 52 191 30 23 60 87 23 29 25 21 36 28 31 22 21 276 252
leaf_count=28615 20 30 20 27 21 802 30 28 25 73 3091 20 53 52 191 30 23 60 87 23 29 25 21 36 28 31 22 21 276 252
internal_value=0 -0.000305337 -0.000519401 0.0542714 0.0433313 -0.000741309 0.0553473 0.0107819 0.0321891 0.0088504 -0.000876758 0.0190221 0.0210316 0.00202936 0.00680935 0.00732317 0.018368 0.00366059 0.00418842 0.00443087 0.00230058 0.0113844 0.00959155 0.00588332 0.0135832 0.0115896 0.0139759 0.00135995 -8.25055e-05 0.00350234
internal_weight=0 34042 33909 133 106 33256 51 653 55 529 31706 124 96 1550 293 273 76 451 399 82 59 236 130 57 106 81 53 1099 297 339
internal_count=34062 34042 33909 133 106 33256 51 653 55 529 31706 124 96 1550 293 273 76 451 399 82 59 236 130 57 106 81 53 1099 297 339
is_linear=0
shrinkage=0.05


Tree=29
num_leaves=31
num_cat=0
split_feature=9 9 9 9 2 9 2 9 9 9 2 9 1 0 9 10 12 11 3 3 0 8 3 5 1 11 8 8 10 2
split_gain=1288.07 143.573 30.7555 22.9052 11.6048 4.95619 3.3138 3.29908 3.28024 0.947919 0.847649 0.863031 0.7276 0.876137 0.595987 0.577379 0.562267 0.50453 0.448997 0.757549 0.472834 0.544405 0.511444 0.516626 0.427435 0.39482 0.394097 0.376985 0.367683 0.320855
threshold=16.724568162647167 2.2161453911700462 0.3674984884632268 5.3281783196753354 0.54990388062574624 1.05858144274615 0.12446551846323363 0.0089992059289603962 3.04328530207742 0.6244949620871888 -0.606013987642534 1.6244056115652934 2.0188801456548724 201306.50000000003 0.17313140757115467 1.9830067188370195 0.56221855677062615 1.0000000180025095e-35 -1.0247317499514292 -0.33782884774075378 201308.50000000003 -0.56806474673086049 0.74590499843606139 0.68301270189221941 3.7185376184109042 1.191599548220345 0.99635443704926241 -0.4647231720423865 -0.077621975368876842 1.209862579843376
decision_type=2 2 2 2 2 2 2 2 2 2 2 2 2 2 2 2 2 2 2 2 2 2 2 2 2 2 2 2 2 2
left_child=1 2 7 6 -5 9 -3 28 -8 12 -7 24 17 -14 26 16 -13 -4 -11 27 -21 -22 23 -23 -12 -15 -9 -20 -1 -19
right_child=-2 3 5 4 -6 10 8 14 -10 18 11 15 13 25 -16 -17 -18 29 19 20 21 22 -24 -25 -26 -27 -28 -29 -30 -31
leaf_value=-0.00097640838502944041 0.40108714282512664 0.025870523953603376 0.0040785144269361523 0.056680229377178919 0.10989795252680779 0.006914182450703305 0.035580141582142781 0.00050687980715899319 0.060358146510340951 0.016176801515658472 0.016112306361726249 0.030702670095931917 -0.0073516145559205191 0.002009448091419353 0.0024344885716999914 0.014645224122241849 0.019702643191871736 0.0076194301402817176 0.0079719333842928931 0.017473934377942767 0.0051389159925747663 0.021207596270833167 0.0070172281661892641 0.01096359349176055 0.0087655987733831781 0.0098227098136951761 0.0061072934608091605 -9.4957794838895405e-05 -0.00059309951642412073 0.014377928050234915
leaf_weight=22009 20 36 111 21 20 23 34 1711 22 22 83 21 21 61 602 21 26 144 28 21 48 20 34 32 26 22 32 30 8741 20
leaf_count=22009 20 36 111 21 20 23 34 1711 22 22 83 21 21 61 602 21 26 144 28 21 48 20 34 32 26 22 32 30 8741 20
internal_value=0 -0.00029007 -0.000493431 0.0515578 0.0826401 0.00910816 0.0377059 -0.00072959 0.0453144 0.00688145 0.0159441 0.0171175 0.00533447 0.00177204 0.00107815 0.0215379 0.0246175 0.00668171 0.00937638 0.00867398 0.010498 0.00940478 0.0117857 0.0149036 0.0143599 0.00408043 0.000609699 0.0037994 -0.000867449 0.00844364
internal_weight=0 34042 33909 133 41 814 92 33095 56 614 200 177 379 104 2345 68 47 275 235 213 155 134 86 52 109 83 1743 58 30750 164
internal_count=34062 34042 33909 133 41 814 92 33095 56 614 200 177 379 104 2345 68 47 275 235 213 155 134 86 52 109 83 1743 58 30750 164
is_linear=0
shrinkage=0.05


Tree=30
num_leaves=31
num_cat=0
split_feature=9 9 9 2 4 9 9 9 4 4 2 0 9 9 2 6 0 11 1 4 0 1 7 6 12 1 4 7 0 7
split_gain=1736.51 129.26 37.237 23.6892 29.3671 6.10331 5.20271 1.08116 0.951512 2.14296 1.73002 1.24635 0.929281 0.796277 0.486512 0.433664 0.610222 0.450774 0.409987 0.922711 0.404524 0.394618 0.612086 0.313766 0.294546 0.268393 0.336579 0.234495 0.228081 0.223209
threshold=13.079105578804745 3.04328530207742 0.59210044860517674 0.096173748824111574 1.0000000180025095e-35 0.10402311214286232 1.5099449972621841 0.99379241578212574 -0.72283366003353555 -0.37973301951694188 0.26272350723823851 201312.50000000003 0.39341409924883641 -0.042832015642258824 0.87489974538058979 0.25000000000000017 201601.50000000003 0.64565247629771483 1.727731247010921 -0.6889185816292589 201316.50000000003 1.4663677866533888 0.46472317204633684 -0.68301270189221952 -0.49288091403101497 0.25098568106930774 -0.51070031667778959 -0.12053668025692736 201304.50000000003 -0.12053668025692736
decision_type=2 2 2 2 2 2 2 2 2 2 2 2 2 2 2 2 2 2 2 2 2 2 2 2 2 2 2 2 2 2
left_child=1 2 5 -3 -5 13 7 15 -8 -10 -11 -12 18 -1 20 -4 17 -17 23 -20 -9 24 -23 -7 -14 -15 -27 -22 -21 -18
right_child=-2 3 6 4 -6 12 8 14 9 10 11 -13 21 25 -16 16 29 -19 19 28 27 22 -24 -25 -26 26 -28 -29 -30 -31
leaf_value=-0.00086852828053401586 0.45452588612125039 0.028186166652574625 0.0064026340084987728 0.12312807840108873 0.045695682591758671 0.00092488100568210692 0.013404207740878239 0.0055401584044808437 0.036413452809676526 0.0073181322731432465 0.016382669201785965 0.030935768494682925 0.0032296330271617928 0.00023741059154532831 0.018300344451115683 0.0096325387149893988 0.0098604773792127787 0.01922592220362276 -0.010074439197778702 -0.0032896382598361622 0.017873486042732284 -0.0031377031284412654 0.0050856243246623009 0.0031326191661813722 0.007421592739950373 -0.0032385448171210599 -0.00040551293245601867 0.011577389175188729 0.0015605743340671432 0.0024798598210327327
leaf_weight=28530 21 29 156 25 24 226 29 21 25 21 28 31 58 2352 39 24 21 25 20 27 21 33 72 559 151 118 940 50 237 20
leaf_count=28530 21 29 156 25 24 226 29 21 25 21 28 31 58 2352 39 24 21 25 20 27 21 33 72 559 151 118 940 50 237 20
internal_value=0 -0.000287786 -0.000436003 0.0640038 0.085202 -0.000641411 0.012959 0.00995113 0.0214214 0.0236356 0.0196426 0.0240292 0.00261049 -0.000782218 0.0136204 0.00799718 0.0107611 0.0145271 0.00190805 0.000280095 0.0116365 0.00500191 0.00250115 0.00249702 0.00625827 -6.00999e-05 -0.000721484 0.0134396 0.00106453 0.00626018
internal_weight=0 33912 33834 78 49 33323 511 377 134 105 80 59 1383 31940 131 246 90 49 1069 284 92 314 105 785 209 3410 1058 71 264 41
internal_count=33933 33912 33834 78 49 33323 511 377 134 105 80 59 1383 31940 131 246 90 49 1069 284 92 314 105 785 209 3410 1058 71 264 41
is_linear=0
shrinkage=0.05


Tree=31
num_leaves=31
num_cat=0
split_feature=9 9 9 7 1 9 9 9 4 4 6 7 10 6 1 8 7 11 4 9 12 10 10 1 4 11 6 11 6 8
split_gain=1567.2 116.657 33.6268 22.3782 10.3417 6.32801 3.90402 1.12103 0.858739 1.93402 1.21793 1.37516 0.740678 0.728319 0.63258 0.610471 0.546458 1.40372 1.06313 0.545928 0.385626 0.31814 0.585844 0.292541 0.84756 0.265589 0.253898 0.249584 0.247534 0.242824
threshold=13.079105578804745 3.04328530207742 0.67848581789054219 0.82298386589255601 0.47572670736573658 0.10402311214286232 1.5099449972621841 0.4150104415701778 -0.72283366003353555 -0.37973301951694188 1.0000000180025095e-35 0.74851074817261043 -0.038782900504263092 0.25000000000000017 2.0188801456548724 -0.74851074817004493 -9.6992769269234252e-13 0.64565247629771483 0.73335133074983549 0.99379241578212574 2.635063460717666 1.0357648374167174 1.3400042571895254 1.727731247010921 -0.6889185816292589 0.82282740801512422 0.93301270189221952 1.0000000180025095e-35 -0.68301270189221952 -0.56806474673086049
decision_type=2 2 2 2 2 2 2 2 2 2 2 2 2 2 2 2 2 2 2 2 2 2 2 2 2 2 2 2 2 2
left_child=1 2 5 4 -3 12 13 20 -8 -10 -11 -12 -1 19 27 -16 -15 -18 -19 -4 23 -21 -23 28 -25 -17 -14 -9 -7 -26
right_child=-2 3 6 -5 -6 7 8 14 9 10 11 -13 26 16 15 25 17 18 -20 21 -22 22 -24 24 29 -27 -28 -29 -30 -31
leaf_value=-0.00082251248443171345 0.43179960190540267 0.067091536223888401 0.0061181020391497601 0.09467984827856224 0.020016290787940049 0.00083713182138719444 0.012733997407786805 0.0047039977036555554 0.034592780463397504 0.010253086340214525 0.033066540570663557 0.016495172375054549 -0.00013364743181635432 0.0086471100190752444 -0.0052615465111254403 0.0016313009104843058 0.0079189698250653855 0.030378013956360517 0.014075210671871903 0.0073152157856384292 0.0080024586024228499 0.019506591434280077 0.0093035434317939435 -0.009570716936141253 -0.00093504826651616521 0.008112052289769054 0.0016662820366972093 0.0078783048593641415 0.0027848682474426317 0.0022080294584826002
leaf_weight=28807 21 20 115 30 28 230 29 113 25 28 21 31 2923 38 24 43 30 20 20 32 25 24 34 20 95 25 210 137 561 174
leaf_count=28807 21 20 115 30 28 230 29 113 25 28 21 31 2923 38 24 43 30 20 20 32 25 24 34 20 95 25 210 137 561 174
internal_value=0 -0.000273397 -0.000414202 0.0608036 0.039631 -0.000596592 0.0132087 0.00263747 0.0203503 0.0224538 0.0186604 0.0231875 -0.000743107 0.0101513 0.00513903 0.00159424 0.0134743 0.0160948 0.0222266 0.00840072 0.00186323 0.0113174 0.0135255 0.00172112 0.0003597 0.00401393 -1.3001e-05 0.00644352 0.00221852 0.00109802
internal_weight=0 33912 33834 78 48 33387 447 1447 134 105 80 52 31940 313 342 92 108 70 40 205 1105 90 58 1080 289 68 3133 250 791 269
internal_count=33933 33912 33834 78 48 33387 447 1447 134 105 80 52 31940 313 342 92 108 70 40 205 1105 90 58 1080 289 68 3133 250 791 269
is_linear=0
shrinkage=0.05


Tree=32
num_leaves=31
num_cat=0
split_feature=9 9 9 12 9 9 2 9 9 9 10 9 6 2 4 3 2 1 4 10 1 12 12 1 4 2 12 4 2 10
split_gain=1414.4 107.291 38.7074 34.6823 6.15438 5.71103 2.07059 4.44347 1.19815 1.01248 0.717475 0.671599 0.657308 0.648962 0.642761 0.565269 0.561242 0.447753 0.432814 0.375746 0.481489 0.363205 0.354411 0.323087 0.730154 0.252909 0.240213 0.331461 0.225972 0.251759
threshold=13.079105578804745 4.4340897475718029 0.67848581789054219 0.50767801156081982 1.5099449972621841 0.10402311214286232 0.46472011969394972 2.4968978413474838 2.8813127346673597 0.39341409924883641 1.6873982045896816 -0.025554941785185754 0.25000000000000017 1.0397872827237582 -0.70388127346448026 0.66766469747084689 0.72601153757635872 2.0188801456548724 0.83872428704331603 0.62363909857553812 0.47572670736573658 1.0273493302246968 2.635063460717666 1.727731247010921 -0.6889185816292589 0.58321100612065513 0.52906228556109525 -0.23473115038558159 -0.068839833759805721 0.42728599787110194
decision_type=2 2 2 2 2 2 2 2 2 2 2 2 2 2 2 2 2 2 2 2 2 2 2 2 2 2 2 2 2 2
left_child=1 2 5 -3 12 11 8 10 14 22 -8 -1 15 16 -6 19 25 26 -19 -4 -21 -22 23 28 -25 -14 -11 -28 29 -7
right_child=-2 3 4 -5 6 9 7 -9 -10 17 -12 -13 13 -15 -16 -17 -18 18 -20 20 21 -23 -24 24 -26 -27 27 -29 -30 -31
leaf_value=-0.00077139212977604579 0.41020962432736446 0.038265802466345061 0.0005875635489990766 0.12513701636344196 0.012969435038129716 0.00056497148574292803 0.025462887015031733 0.042914341261674621 0.0062164234280910188 0.0045411481207075386 0.013885361430584454 9.7335089439223594e-05 0.010032923606735085 0.018398091681301593 0.02381734969547122 0.013231785543172099 0.0032180076232179999 -0.0014118486070074142 0.0050157510269359176 0.011013622895504038 0.0028520065727726824 0.010003099803669521 0.0076023355284705763 -0.0090921811200678354 0.00082889174147888253 0.017139551345081556 0.0035800707772270673 0.0093802300628083642 0.0028067145311228081 0.0051859096687456429
leaf_weight=29534 21 27 22 20 22 276 23 29 23 159 32 2406 31 35 36 41 21 50 55 60 56 26 25 20 255 21 36 78 460 33
leaf_count=29534 21 27 22 20 22 276 23 29 23 159 32 2406 31 35 36 41 21 50 55 60 56 26 25 20 255 21 36 78 460 33
internal_value=0 -0.000259727 -0.0003645 0.0752323 0.013763 -0.000566763 0.0215771 0.0270773 0.0158732 0.00250559 0.0187269 -0.000705952 0.00964378 0.0128006 0.0197026 0.00798068 0.0101168 0.00472978 0.00195499 0.00666791 0.00760993 0.00511943 0.00171912 0.00157824 0.000107359 0.0129029 0.00579701 0.0075486 0.00210423 0.00105847
internal_weight=0 33912 33865 47 478 33387 165 84 81 1447 55 31940 313 108 58 205 73 378 105 164 142 82 1069 1044 275 52 273 114 769 309
internal_count=33933 33912 33865 47 478 33387 165 84 81 1447 55 31940 313 108 58 205 73 378 105 164 142 82 1069 1044 275 52 273 114 769 309
is_linear=0
shrinkage=0.05


Tree=33
num_leaves=31
num_cat=0
split_feature=10 10 2 10 1 10 10 12 2 3 12 1 10 6 11 12 2 0 2 1 3 10 1 6 0 10 0 0 2 1
split_gain=1258.31 90.3544 31.9719 29.3777 18.1569 4.79207 4.20506 1.78416 2.55123 1.44453 1.06369 0.887909 0.84463 0.74983 0.473959 0.402558 0.399093 0.551451 0.539245 0.385331 0.353493 0.353427 0.353261 0.350719 0.28366 0.329256 0.339322 0.414791 0.296485 0.270682
threshold=16.467823916956586 3.3812134139631147 0.68131592213963599 0.6085350139059662 0.53364726403608664 1.4802564719784084 0.10362704066598734 -0.25701510948174661 1.016077539551002 0.12238875318105062 2.3929618436932105 -0.10028199138884245 -0.038782900504263092 1.0000000180025095e-35 -0.56572749218334573 2.635063460717666 0.56734722303659357 201603.50000000003 0.76610072342833624 0.71017320525011618 -0.55128536470537715 1.1263893454341496 2.0188801456548724 0.25000000000000017 201212.50000000003 0.36686965919281395 201601.50000000003 201452.50000000003 0.83699116022737419 2.0188801456548724
decision_type=2 2 2 2 2 2 2 2 2 2 2 2 2 2 2 2 2 2 2 2 2 2 2 2 2 2 2 2 2 2
left_child=1 3 4 6 -3 10 12 19 9 20 11 14 -1 -8 -5 24 21 18 -18 -7 -9 -13 -20 -14 -15 26 27 -26 -29 -28
right_child=-2 2 -4 5 -6 7 13 8 -10 -11 -12 16 23 15 -16 -17 17 -19 22 -21 -22 -23 -24 -25 25 -27 29 28 -30 -31
leaf_value=-0.0007431710949807064 0.39647351309657097 0.06136156789123498 0.10943772152066232 0.0086694498887906462 0.0018734997644534578 0.014923263691300582 0.001011606919753831 0.017238082000542256 0.035121678525646183 0.026358967133176828 0.019344981298560188 0.0039934688343514577 -0.00028699947984037335 -0.0010779123897296623 0.017417282063979658 0.0098448712378740311 0.017575586096129633 0.0025105049439634267 0.013181729138828813 0.0052258886210620401 0.008588613332594159 0.0097416198346763853 0.0056051232677418739 0.0008096021957694037 0.0026600796188694063 0.0052167964284977313 0.0018334777218663241 0.004489454841957642 0.011382465396533148 -0.0033811024359116956
leaf_weight=28831 20 29 20 30 23 21 700 21 29 30 21 141 1946 38 32 23 22 26 25 20 27 33 40 1166 204 174 146 39 26 30
leaf_count=28831 20 29 20 30 23 21 700 21 29 30 21 141 1946 38 32 23 22 26 25 20 27 33 40 1166 204 174 146 39 26 30
internal_value=0 -0.000239238 0.0557129 -0.000358281 0.0350495 0.0114576 -0.000541956 0.0190615 0.0224597 0.0177521 0.00841599 0.00775838 -0.000658701 0.00216034 0.0131845 0.00334285 0.00658619 0.00889986 0.0108093 0.0101928 0.0123728 0.00508364 0.0085192 0.000123874 0.00311523 0.00337264 0.00265156 0.00376836 0.00724666 0.000944629
internal_weight=0 33913 72 33841 52 518 33323 148 107 78 370 349 31943 1380 62 680 287 113 87 41 48 174 65 3112 657 619 445 269 65 176
internal_count=33933 33913 72 33841 52 518 33323 148 107 78 370 349 31943 1380 62 680 287 113 87 41 48 174 65 3112 657 619 445 269 65 176
is_linear=0
shrinkage=0.05


Tree=34
num_leaves=31
num_cat=0
split_feature=9 9 7 9 9 9 10 9 9 10 0 2 9 9 1 10 7 12 1 10 12 7 1 0 7 10 9 10 0 1
split_gain=1164.31 87.0632 32.2901 27.8616 4.68678 3.74629 1.20684 2.53686 0.809521 0.601095 0.64221 0.684025 0.592505 0.579333 0.516029 0.512085 0.39828 0.34833 0.334752 0.324057 0.303294 0.373792 0.277395 0.257567 0.347164 0.545833 0.395238 0.316587 0.318944 0.341855
threshold=13.079105578804745 3.7300489878960748 0.74851074817129637 0.67848581789054219 0.11266164907139888 1.5099449972621841 3.221541661741925 2.4968978413474838 0.4150104415701778 1.3572660682404647 201304.50000000003 0.68131592213963599 -0.00827786792811268 0.99379241578212574 2.0188801456548724 0.37118511195554876 0.88545602565225212 2.635063460717666 0.61438279250366346 0.99261030978936882 1.399551288499761 0.56806474672990737 0.95217789503467298 201605.50000000003 0.8229838658938099 0.043210701987699267 0.32430580382054414 0.021633438174024959 201621.50000000003 2.3815099988872306
decision_type=2 2 2 2 2 2 2 2 2 2 2 2 2 2 2 2 2 2 2 2 2 2 2 2 2 2 2 2 2 2
left_child=1 3 -3 4 12 13 7 9 17 -7 -11 -12 -1 15 -10 -5 18 23 -15 -17 21 -16 -21 24 -6 -26 -27 -25 29 -29
right_child=-2 2 -4 5 8 6 -8 -9 14 10 11 -13 -14 16 20 19 -18 -19 -20 22 -22 -23 -24 27 25 26 -28 28 -30 -31
leaf_value=-0.00068863793430963636 0.37218181476706552 0.031143072514647721 0.10620399705417778 -0.00046433846610376524 0.0013790057777279601 0.023592526266639609 0.0068531170254573226 0.032278144930023699 0.0056294958477723419 0.021536944371958577 0.015979596053842793 0.0048857843292353211 0.00023134318930945449 0.013384066148594553 -0.005418104517836279 0.0091697756578644918 0.015634060195470985 0.0078705040281585592 0.0072119276236616466 0.0083230270317289981 0.0063705738803202464 0.0022793963546459766 0.0001869029836432839 -0.0054407791107554332 0.011711645494215191 0.0016495653070194294 0.0075168289546225526 0.00044447301789006532 0.0019352842758089538 -0.0057800410222171202
leaf_weight=30150 21 38 23 21 505 21 20 32 250 21 33 24 1858 35 24 119 37 22 59 20 22 46 22 22 20 128 37 71 200 32
leaf_count=30150 21 38 23 21 505 21 20 32 250 21 33 24 1858 35 24 119 37 22 59 20 22 46 22 22 20 128 37 71 200 32
internal_value=0 -0.000235622 0.0594447 -0.000343167 -0.000512273 0.0118248 0.0182932 0.0200397 0.00234181 0.0160839 0.0140623 0.0113085 -0.000635235 0.00870425 0.0044513 0.00687926 0.0112397 0.0016461 0.00951006 0.00783712 0.00124968 -0.000359747 0.00406125 0.00151119 0.00205782 0.00391081 0.00296525 0.000350634 0.000771132 -0.00148936
internal_weight=0 33912 61 33851 33387 464 151 131 1379 99 78 57 32008 313 342 182 131 1037 94 161 92 70 42 1015 690 185 165 325 303 103
internal_count=33933 33912 61 33851 33387 464 151 131 1379 99 78 57 32008 313 342 182 131 1037 94 161 92 70 42 1015 690 185 165 325 303 103
is_linear=0
shrinkage=0.05


Tree=35
num_leaves=31
num_cat=0
split_feature=9 9 1 5 9 4 2 4 0 0 10 9 9 12 10 8 1 0 1 10 10 4 11 4 11 11 12 1 9 11
split_gain=810.586 61.2722 11.1598 15.4802 10.1384 7.98166 7.545 9.81503 2.87368 2.31275 2.33941 1.56819 1.11549 0.470868 0.609246 0.446163 0.359309 0.809716 0.279604 0.306131 0.273506 0.27001 0.49991 0.255288 0.247627 0.25798 0.295938 0.310888 0.230032 0.227742
